{"sizes":[100,50,5],"layers":[{"0":{},"1":{},"2":{},"3":{},"4":{},"5":{},"6":{},"7":{},"8":{},"9":{},"10":{},"11":{},"12":{},"13":{},"14":{},"15":{},"16":{},"17":{},"18":{},"19":{},"20":{},"21":{},"22":{},"23":{},"24":{},"25":{},"26":{},"27":{},"28":{},"29":{},"30":{},"31":{},"32":{},"33":{},"34":{},"35":{},"36":{},"37":{},"38":{},"39":{},"40":{},"41":{},"42":{},"43":{},"44":{},"45":{},"46":{},"47":{},"48":{},"49":{},"50":{},"51":{},"52":{},"53":{},"54":{},"55":{},"56":{},"57":{},"58":{},"59":{},"60":{},"61":{},"62":{},"63":{},"64":{},"65":{},"66":{},"67":{},"68":{},"69":{},"70":{},"71":{},"72":{},"73":{},"74":{},"75":{},"76":{},"77":{},"78":{},"79":{},"80":{},"81":{},"82":{},"83":{},"84":{},"85":{},"86":{},"87":{},"88":{},"89":{},"90":{},"91":{},"92":{},"93":{},"94":{},"95":{},"96":{},"97":{},"98":{},"99":{}},{"0":{"bias":0.2360365092754364,"weights":{"0":0.7632940411567688,"1":-0.8904483914375305,"2":0.4227321743965149,"3":-0.25115495920181274,"4":0.18561621010303497,"5":-0.17040511965751648,"6":0.492540568113327,"7":0.009363280609250069,"8":-0.5460176467895508,"9":-0.40481895208358765,"10":0.3466244041919708,"11":-0.060313113033771515,"12":0.8142945170402527,"13":0.25983163714408875,"14":-0.7011553049087524,"15":-0.752006471157074,"16":0.08148129284381866,"17":-0.32150721549987793,"18":-0.3556121587753296,"19":-1.189082384109497,"20":0.6394342184066772,"21":0.6046621203422546,"22":-0.18073301017284393,"23":-0.22075292468070984,"24":0.5618113279342651,"25":0.5337960124015808,"26":-0.17291083931922913,"27":0.7705914974212646,"28":-0.492676317691803,"29":-0.15129101276397705,"30":-0.17597107589244843,"31":-0.2686394453048706,"32":0.5806246399879456,"33":0.7551614046096802,"34":-0.15019811689853668,"35":0.3661109507083893,"36":0.03179902955889702,"37":-0.911396861076355,"38":1.3449639081954956,"39":-0.27010366320610046,"40":-0.5208267569541931,"41":-0.0022900719195604324,"42":0.6669049263000488,"43":-0.9490617513656616,"44":0.4537629783153534,"45":0.0069060055539011955,"46":-1.4086480140686035,"47":-0.8051838278770447,"48":0.220802441239357,"49":0.3270406723022461,"50":0.47606614232063293,"51":-0.6999465227127075,"52":0.1882956475019455,"53":-0.5462119579315186,"54":-0.23097848892211914,"55":-0.9709872603416443,"56":-0.054537784308195114,"57":1.2212032079696655,"58":0.3334101736545563,"59":0.14682407677173615,"60":0.266372948884964,"61":0.1098407730460167,"62":0.09816867858171463,"63":-0.941619873046875,"64":-0.10693203657865524,"65":-0.5075549483299255,"66":0.49959978461265564,"67":-0.3385971188545227,"68":-0.357300728559494,"69":-0.21302221715450287,"70":-0.38657906651496887,"71":-0.5071658492088318,"72":-0.4865279495716095,"73":0.12371445447206497,"74":0.24649064242839813,"75":-0.34952232241630554,"76":-0.1584593802690506,"77":-0.38906562328338623,"78":-0.31925374269485474,"79":0.2585771083831787,"80":0.3631766438484192,"81":0.15772776305675507,"82":-0.5863884687423706,"83":0.2790900468826294,"84":0.7903292775154114,"85":-0.28625014424324036,"86":-0.2054775357246399,"87":-0.2667544186115265,"88":-0.172527015209198,"89":-0.12688611447811127,"90":0.3665091097354889,"91":-0.4406161308288574,"92":-0.38231518864631653,"93":0.39276716113090515,"94":0.47847622632980347,"95":-0.1897532343864441,"96":0.39174965023994446,"97":0.24675166606903076,"98":-0.19512300193309784,"99":-0.7307664155960083}},"1":{"bias":-0.46193042397499084,"weights":{"0":0.9225409030914307,"1":0.5808091759681702,"2":-0.6660842895507812,"3":1.8914052248001099,"4":-0.22178995609283447,"5":1.9777354001998901,"6":-1.172304630279541,"7":2.4417622089385986,"8":0.4068326950073242,"9":-1.0342204570770264,"10":0.2895759642124176,"11":0.23696063458919525,"12":0.1021418571472168,"13":1.0946714878082275,"14":-1.4438093900680542,"15":1.3299463987350464,"16":-1.496137022972107,"17":-3.0623719692230225,"18":0.7262669205665588,"19":0.684372067451477,"20":0.5142025351524353,"21":1.5690712928771973,"22":-0.4033583700656891,"23":0.12140299379825592,"24":0.4476563632488251,"25":-0.7915679812431335,"26":-0.2588486075401306,"27":2.0303049087524414,"28":-0.3211365044116974,"29":0.2265998125076294,"30":0.08193711191415787,"31":-0.35451868176460266,"32":0.18248100578784943,"33":-0.3766942620277405,"34":-1.04059898853302,"35":1.1315946578979492,"36":-0.8674439787864685,"37":-0.8973564505577087,"38":-0.3476073741912842,"39":0.19892850518226624,"40":-1.6343687772750854,"41":-0.5759152770042419,"42":-1.019686222076416,"43":0.9267019033432007,"44":0.11107389628887177,"45":-0.7189889550209045,"46":-0.1612965613603592,"47":1.6786326169967651,"48":-1.160658359527588,"49":0.6566994190216064,"50":-0.63396817445755,"51":1.439982533454895,"52":-0.7284366488456726,"53":-1.8300913572311401,"54":0.4737212359905243,"55":0.6866427659988403,"56":-0.15309958159923553,"57":1.08526611328125,"58":0.5035229921340942,"59":0.7225443720817566,"60":1.39674973487854,"61":-2.0939157009124756,"62":-0.27330151200294495,"63":0.3463142514228821,"64":-0.712854266166687,"65":0.4118797779083252,"66":-0.35701611638069153,"67":1.1798046827316284,"68":0.08223588764667511,"69":0.02373599261045456,"70":0.20263579487800598,"71":0.2365524023771286,"72":-0.36377760767936707,"73":0.6531582474708557,"74":-0.42891278862953186,"75":0.6828909516334534,"76":0.7417464256286621,"77":0.05539088696241379,"78":-0.7389200329780579,"79":0.8459771275520325,"80":-0.8754223585128784,"81":0.34724539518356323,"82":-0.43096446990966797,"83":0.6305762529373169,"84":-0.7314275503158569,"85":-0.8235350847244263,"86":0.9794204831123352,"87":1.3062005043029785,"88":-0.35015639662742615,"89":0.5744396448135376,"90":0.820623517036438,"91":0.18853111565113068,"92":-0.04258006066083908,"93":-0.2796436846256256,"94":-1.5648990869522095,"95":1.7613768577575684,"96":-1.0180203914642334,"97":0.28684693574905396,"98":-0.8494160771369934,"99":0.15241752564907074}},"2":{"bias":-0.2554265558719635,"weights":{"0":0.4588179588317871,"1":-0.631354808807373,"2":0.19910433888435364,"3":-0.052410587668418884,"4":0.24241439998149872,"5":-0.1826997548341751,"6":-0.13393720984458923,"7":0.2730790078639984,"8":-0.45205628871917725,"9":-0.17511489987373352,"10":0.18049074709415436,"11":0.5962787866592407,"12":0.1839868724346161,"13":-0.018271062523126602,"14":-0.3563153147697449,"15":-0.05134010314941406,"16":-0.3217109739780426,"17":-0.05755864083766937,"18":-0.06571163982152939,"19":-0.23402506113052368,"20":0.16281551122665405,"21":0.18435369431972504,"22":0.1094340831041336,"23":0.22128432989120483,"24":0.4109933376312256,"25":0.25322267413139343,"26":-0.6204237937927246,"27":0.5051583051681519,"28":-0.36582061648368835,"29":-0.11987438052892685,"30":-0.07398469001054764,"31":0.10488947480916977,"32":0.10687808692455292,"33":0.2156071811914444,"34":-0.042329564690589905,"35":0.07601626217365265,"36":-0.17190960049629211,"37":-0.3167206346988678,"38":0.481251060962677,"39":0.27703872323036194,"40":-0.05866509675979614,"41":0.06199134141206741,"42":0.15593034029006958,"43":0.3049922585487366,"44":-0.00043665143311955035,"45":-0.09763228893280029,"46":-0.29752063751220703,"47":0.12472556531429291,"48":-0.15969310700893402,"49":-0.3849544823169708,"50":0.3398606479167938,"51":0.12630009651184082,"52":0.10718432068824768,"53":-0.3001299500465393,"54":-0.05350732430815697,"55":-0.39721623063087463,"56":-0.32234567403793335,"57":0.1497158259153366,"58":-0.19978106021881104,"59":0.5991364121437073,"60":0.390670508146286,"61":0.13111315667629242,"62":0.5279538631439209,"63":-0.0019667597953230143,"64":-0.3850648105144501,"65":0.04690593108534813,"66":-0.278121680021286,"67":0.34777143597602844,"68":0.07317148894071579,"69":-0.022861884906888008,"70":0.05531049519777298,"71":0.24966952204704285,"72":0.004969988949596882,"73":0.20261219143867493,"74":0.10552118718624115,"75":0.3731952905654907,"76":-0.10824549198150635,"77":-0.23783761262893677,"78":-0.29979178309440613,"79":0.10898534953594208,"80":0.0814177542924881,"81":0.1579599529504776,"82":-0.25582650303840637,"83":0.21305014193058014,"84":-0.02598964236676693,"85":0.06320465356111526,"86":0.1156153753399849,"87":0.21786709129810333,"88":0.2372160404920578,"89":0.26036572456359863,"90":0.24020299315452576,"91":0.09159489721059799,"92":-0.46557122468948364,"93":0.09236612170934677,"94":-0.012931477278470993,"95":0.3079209625720978,"96":-0.2776743471622467,"97":-0.17717698216438293,"98":-0.21835669875144958,"99":0.3098573088645935}},"3":{"bias":0.044194139540195465,"weights":{"0":1.0034902095794678,"1":0.6232984662055969,"2":-0.2202761024236679,"3":0.3468764126300812,"4":0.18860822916030884,"5":-0.5834963321685791,"6":-0.2485475093126297,"7":-0.0265043918043375,"8":0.007115719374269247,"9":0.7752220630645752,"10":-0.19290412962436676,"11":0.13280527293682098,"12":0.3658398389816284,"13":0.8957728147506714,"14":-0.9567403793334961,"15":-0.983090341091156,"16":-0.6271641850471497,"17":-0.01959301345050335,"18":0.4943401515483856,"19":-0.6197318434715271,"20":0.19004923105239868,"21":-0.4520091414451599,"22":0.11515066027641296,"23":-0.198902890086174,"24":0.4706059992313385,"25":-0.4494718611240387,"26":0.4432036876678467,"27":0.584219217300415,"28":0.2632928192615509,"29":0.9530040621757507,"30":-0.5038913488388062,"31":-0.17677171528339386,"32":0.28872695565223694,"33":-0.36590346693992615,"34":-0.13088838756084442,"35":-0.508080780506134,"36":-0.16559100151062012,"37":-0.7856965661048889,"38":0.7666952013969421,"39":-0.7976741194725037,"40":-0.6653086543083191,"41":-0.46126696467399597,"42":-0.34747233986854553,"43":-0.36578768491744995,"44":-0.09347382932901382,"45":0.02888593077659607,"46":0.10698360204696655,"47":-0.299268513917923,"48":0.1336820125579834,"49":-0.8728178143501282,"50":0.0137478681281209,"51":-0.9252140522003174,"52":-0.1249735876917839,"53":0.26355576515197754,"54":0.05140563100576401,"55":0.10346102714538574,"56":0.30268630385398865,"57":0.40933409333229065,"58":-0.24960294365882874,"59":-0.01818346604704857,"60":0.15861158072948456,"61":-0.09364209324121475,"62":0.07550058513879776,"63":-1.7066688537597656,"64":-0.46098947525024414,"65":-0.5649058222770691,"66":0.24880321323871613,"67":-0.19131188094615936,"68":0.8769071698188782,"69":0.3981965482234955,"70":0.2182006686925888,"71":-0.36292746663093567,"72":-0.5206781029701233,"73":0.4321347773075104,"74":-0.4948553442955017,"75":-1.12259840965271,"76":0.3234412372112274,"77":-0.03047642670571804,"78":1.1294670104980469,"79":-0.5947287678718567,"80":0.052890803664922714,"81":0.19586530327796936,"82":-0.8767889142036438,"83":-1.0336886644363403,"84":-1.144436240196228,"85":1.5780510902404785,"86":0.006561030633747578,"87":0.4914731979370117,"88":0.327696293592453,"89":0.48543158173561096,"90":-0.14316968619823456,"91":-0.6687578558921814,"92":-0.16917207837104797,"93":-0.6095694899559021,"94":1.3399854898452759,"95":-0.5566738247871399,"96":0.9163736701011658,"97":-1.0200914144515991,"98":0.54197096824646,"99":-1.091920256614685}},"4":{"bias":-0.2776249647140503,"weights":{"0":1.9385720491409302,"1":-2.0144460201263428,"2":0.03220057487487793,"3":-0.7543497681617737,"4":1.3284395933151245,"5":0.09625466912984848,"6":0.8798252940177917,"7":0.04692138731479645,"8":-0.1314031183719635,"9":-1.634235143661499,"10":-0.12509572505950928,"11":2.3992464542388916,"12":0.6312329173088074,"13":0.832892894744873,"14":-1.6019374132156372,"15":0.8568133115768433,"16":-0.428876131772995,"17":-0.06033387780189514,"18":-0.04864184185862541,"19":-1.0721704959869385,"20":0.3236592710018158,"21":1.3054330348968506,"22":0.5670629143714905,"23":1.584793210029602,"24":1.3988103866577148,"25":0.9543966054916382,"26":-2.2634191513061523,"27":1.4306517839431763,"28":-1.8227699995040894,"29":-1.0332454442977905,"30":-1.9595078229904175,"31":1.192615270614624,"32":-0.7824462652206421,"33":1.1713917255401611,"34":0.9604795575141907,"35":1.1211260557174683,"36":2.3694040775299072,"37":-0.3906603753566742,"38":1.4218945503234863,"39":0.986261248588562,"40":-0.8965256810188293,"41":-0.5344574451446533,"42":0.46501633524894714,"43":1.9979755878448486,"44":-0.8151382207870483,"45":-0.06720413267612457,"46":-1.4102671146392822,"47":0.848211407661438,"48":-0.5222809910774231,"49":-0.714138388633728,"50":0.7865749597549438,"51":0.6843617558479309,"52":0.839745283126831,"53":-2.287396192550659,"54":-0.7113115787506104,"55":0.13738104701042175,"56":-1.184482216835022,"57":2.0862224102020264,"58":-0.7572512030601501,"59":2.231902599334717,"60":2.3575422763824463,"61":-0.10939914733171463,"62":1.4679406881332397,"63":-1.2404006719589233,"64":-1.6290984153747559,"65":0.493867427110672,"66":-0.9284862279891968,"67":0.8369767069816589,"68":-0.2941725254058838,"69":-1.2877501249313354,"70":-0.577414333820343,"71":0.3138020932674408,"72":-0.8883008360862732,"73":2.3220157623291016,"74":0.8145548105239868,"75":1.4030401706695557,"76":2.0993354320526123,"77":-1.5371628999710083,"78":-0.7391136884689331,"79":2.3147387504577637,"80":-0.6950522065162659,"81":0.4703507423400879,"82":-1.3632640838623047,"83":2.0926215648651123,"84":0.4410656690597534,"85":-1.2125502824783325,"86":-0.12160183489322662,"87":1.4726958274841309,"88":0.32349205017089844,"89":0.8498945236206055,"90":1.9658586978912354,"91":-0.16225667297840118,"92":-1.341426134109497,"93":-1.2589242458343506,"94":-1.0409988164901733,"95":1.2713637351989746,"96":0.6076717376708984,"97":0.5298261046409607,"98":-0.08437544107437134,"99":1.7941932678222656}},"5":{"bias":0.30105525255203247,"weights":{"0":-1.6443625688552856,"1":1.3055189847946167,"2":-0.3203062415122986,"3":-0.15712879598140717,"4":-2.1930699348449707,"5":1.3867881298065186,"6":0.8379749059677124,"7":-1.8866431713104248,"8":0.5360602140426636,"9":2.3035895824432373,"10":-0.993415892124176,"11":-4.203355312347412,"12":-1.784026861190796,"13":-1.7727786302566528,"14":2.738687753677368,"15":-1.7916967868804932,"16":1.3555786609649658,"17":0.14211419224739075,"18":-0.837328314781189,"19":-1.30769944190979,"20":-0.5609349012374878,"21":-0.235507994890213,"22":-0.019715219736099243,"23":-3.8557558059692383,"24":-0.022924110293388367,"25":-1.5943509340286255,"26":1.2743793725967407,"27":-2.622393846511841,"28":1.2955785989761353,"29":-0.4731483459472656,"30":1.5910766124725342,"31":-1.4464863538742065,"32":-0.3010985255241394,"33":0.5923051238059998,"34":-0.49714964628219604,"35":-2.662268877029419,"36":-0.2849898338317871,"37":0.32318586111068726,"38":-0.8067125678062439,"39":-2.1933395862579346,"40":-0.8807725310325623,"41":1.6499446630477905,"42":-1.0789194107055664,"43":-2.0935451984405518,"44":1.156482219696045,"45":0.6727162003517151,"46":1.8307267427444458,"47":-2.0321786403656006,"48":0.2718268036842346,"49":-1.3662199974060059,"50":-0.6413782835006714,"51":-2.509561061859131,"52":-0.03284287080168724,"53":2.7602028846740723,"54":0.1096959039568901,"55":-1.8268094062805176,"56":0.6364750266075134,"57":-0.9090818762779236,"58":0.7009503245353699,"59":-2.9272384643554688,"60":-1.8854310512542725,"61":-1.329132080078125,"62":-1.7068063020706177,"63":0.6950420141220093,"64":1.0888824462890625,"65":0.7108146548271179,"66":1.5442395210266113,"67":-2.1097400188446045,"68":1.2946999073028564,"69":-0.15310409665107727,"70":-0.9963706135749817,"71":-1.6933417320251465,"72":0.7188562750816345,"73":-1.334517478942871,"74":-0.14393676817417145,"75":-1.7301037311553955,"76":-1.4626938104629517,"77":1.2978595495224,"78":0.44532063603401184,"79":-2.2615652084350586,"80":0.5530917644500732,"81":-0.25350046157836914,"82":0.6849998235702515,"83":-2.530946969985962,"84":0.5250275135040283,"85":0.9456281065940857,"86":1.6392959356307983,"87":-2.936552047729492,"88":-2.2961010932922363,"89":-2.284925937652588,"90":-1.8280006647109985,"91":-0.81658536195755,"92":3.538311004638672,"93":1.8116919994354248,"94":-1.2306506633758545,"95":-1.558039665222168,"96":-0.8123500943183899,"97":-0.5804225206375122,"98":0.15316447615623474,"99":-2.9009511470794678}},"6":{"bias":-0.00005837675416842103,"weights":{"0":0.5433204770088196,"1":-0.3899315595626831,"2":-0.13909849524497986,"3":-0.18761798739433289,"4":0.366399884223938,"5":-0.4381818175315857,"6":-0.2360522598028183,"7":0.23916205763816833,"8":-0.2735258936882019,"9":-0.17950895428657532,"10":0.20456241071224213,"11":0.5415119528770447,"12":0.7256704568862915,"13":0.10785739123821259,"14":-0.5904784798622131,"15":0.013834616169333458,"16":-0.26865386962890625,"17":-0.04714932292699814,"18":0.2624170780181885,"19":-0.45432284474372864,"20":0.08082342147827148,"21":-0.009915481321513653,"22":-0.22697746753692627,"23":0.40942007303237915,"24":0.19897301495075226,"25":0.30790406465530396,"26":-0.514048159122467,"27":0.4741401672363281,"28":-0.6304206252098083,"29":0.04149612784385681,"30":-0.37077996134757996,"31":-0.038477860391139984,"32":0.2850831151008606,"33":-0.04279736056923866,"34":-0.19042328000068665,"35":0.47439315915107727,"36":-0.01975042000412941,"37":-0.695996105670929,"38":0.39880096912384033,"39":0.23026429116725922,"40":-0.03858368098735809,"41":-0.32870563864707947,"42":0.31895187497138977,"43":0.05526585131883621,"44":-0.30875977873802185,"45":0.07451189309358597,"46":-0.734957754611969,"47":-0.1982448846101761,"48":-0.32347580790519714,"49":-0.0713060274720192,"50":0.39439308643341064,"51":0.039310552179813385,"52":0.262162446975708,"53":-0.21597179770469666,"54":0.027356155216693878,"55":-0.04474325478076935,"56":-0.33430996537208557,"57":0.27918386459350586,"58":-0.3104526698589325,"59":0.42727434635162354,"60":0.23504258692264557,"61":0.35352787375450134,"62":0.5584645867347717,"63":-0.2686254680156708,"64":-0.35281842947006226,"65":-0.30359944701194763,"66":-0.295228511095047,"67":0.08447258174419403,"68":-0.39779165387153625,"69":0.19730909168720245,"70":0.12987054884433746,"71":-0.17933419346809387,"72":-0.016684163361787796,"73":0.02379458397626877,"74":0.01369595155119896,"75":-0.12186437100172043,"76":-0.12756432592868805,"77":-0.4425734877586365,"78":-0.19366455078125,"79":0.1700850874185562,"80":-0.17729049921035767,"81":0.17628368735313416,"82":-0.21147401630878448,"83":0.21312546730041504,"84":0.11167213320732117,"85":0.017183156684041023,"86":0.004084698390215635,"87":-0.033744703978300095,"88":0.5200093984603882,"89":0.46034157276153564,"90":0.3436785638332367,"91":0.0021037915721535683,"92":-0.8342496156692505,"93":-0.2777310013771057,"94":0.5212337374687195,"95":0.23536308109760284,"96":0.2183346152305603,"97":-0.17226485908031464,"98":0.07240086793899536,"99":0.337785005569458}},"7":{"bias":-0.1717572957277298,"weights":{"0":0.46504220366477966,"1":-0.05624588951468468,"2":-0.39918774366378784,"3":-0.09100544452667236,"4":0.10707064718008041,"5":-0.17331908643245697,"6":-0.3632274866104126,"7":0.3002050220966339,"8":-0.46197405457496643,"9":-0.14025691151618958,"10":-0.4008689522743225,"11":0.3542448580265045,"12":0.3971961438655853,"13":-0.004269375000149012,"14":-0.3380851149559021,"15":-0.22121977806091309,"16":0.03764837607741356,"17":0.2500458359718323,"18":-0.0935271829366684,"19":-0.3875926733016968,"20":-0.019257768988609314,"21":0.17796993255615234,"22":0.44009271264076233,"23":0.1910429447889328,"24":0.0801035463809967,"25":-0.5215721130371094,"26":-0.22680538892745972,"27":0.5064558386802673,"28":-0.35279127955436707,"29":0.3432712256908417,"30":-0.20464204251766205,"31":-0.22485029697418213,"32":0.048027873039245605,"33":0.4279573857784271,"34":-0.01587945781648159,"35":-0.09295595437288284,"36":0.23883575201034546,"37":-0.7732151746749878,"38":0.25818121433258057,"39":0.25155898928642273,"40":-0.32287806272506714,"41":-0.5749730467796326,"42":0.11749934405088425,"43":0.062783382833004,"44":-0.3179132640361786,"45":0.25296342372894287,"46":-0.17147965729236603,"47":0.008070764131844044,"48":0.3431852161884308,"49":0.04213070124387741,"50":-0.2847525179386139,"51":-0.35914355516433716,"52":-0.21018828451633453,"53":-0.8112823367118835,"54":-0.19985604286193848,"55":-0.1428034007549286,"56":-0.3288942873477936,"57":0.3517926335334778,"58":-0.15803371369838715,"59":0.22901371121406555,"60":0.27963322401046753,"61":0.6062195301055908,"62":0.09826945513486862,"63":-0.20502109825611115,"64":0.19506236910820007,"65":-0.7667455077171326,"66":0.16054736077785492,"67":0.20165148377418518,"68":-0.41558605432510376,"69":-0.25061413645744324,"70":-0.08266404271125793,"71":-0.3841359317302704,"72":-0.3602539300918579,"73":0.5403705835342407,"74":-0.2506243586540222,"75":-0.5628497004508972,"76":0.31510913372039795,"77":0.13013827800750732,"78":0.027937600389122963,"79":-0.2346094250679016,"80":-0.15002968907356262,"81":-0.8718706965446472,"82":-0.056340958923101425,"83":0.31037113070487976,"84":-0.8833433985710144,"85":0.7308910489082336,"86":-0.11582383513450623,"87":0.26009514927864075,"88":0.4616491496562958,"89":0.22520458698272705,"90":0.08283402770757675,"91":-0.31439274549484253,"92":0.10841021686792374,"93":-0.647031843662262,"94":0.4608429968357086,"95":0.3694070875644684,"96":-0.04845549166202545,"97":-0.46890056133270264,"98":0.4300951063632965,"99":-0.2932673990726471}},"8":{"bias":0.026642028242349625,"weights":{"0":0.3153593838214874,"1":-0.1442326009273529,"2":-0.10893736034631729,"3":0.18747495114803314,"4":0.2921420931816101,"5":-0.27250558137893677,"6":-0.22691987454891205,"7":0.24814113974571228,"8":0.1711626797914505,"9":0.23986606299877167,"10":-0.3004705607891083,"11":0.43315374851226807,"12":0.02142336778342724,"13":0.21971823275089264,"14":-0.28129392862319946,"15":0.01747237518429756,"16":0.14693082869052887,"17":-0.3603969216346741,"18":-0.1798921376466751,"19":-0.2592272162437439,"20":-0.5962233543395996,"21":0.15890471637248993,"22":0.1434650421142578,"23":0.22909604012966156,"24":0.43258005380630493,"25":0.14501069486141205,"26":-0.201893612742424,"27":0.4748532474040985,"28":-0.1838228553533554,"29":-0.08359503000974655,"30":-0.03478560969233513,"31":-0.014576221816241741,"32":-0.4993901550769806,"33":0.3456229865550995,"34":-0.17348410189151764,"35":0.01798432692885399,"36":-0.1833573877811432,"37":-0.5228407979011536,"38":0.06621310859918594,"39":0.21147321164608002,"40":-0.32732322812080383,"41":0.1767653375864029,"42":-0.18995676934719086,"43":-0.13707178831100464,"44":0.1628970205783844,"45":-0.14134664833545685,"46":-0.33161863684654236,"47":-0.2681097388267517,"48":-0.09825079888105392,"49":-0.6159077286720276,"50":-0.1045452430844307,"51":0.01011509820818901,"52":-0.44677168130874634,"53":-0.08842504024505615,"54":-0.37171629071235657,"55":0.08611173927783966,"56":0.0011600633151829243,"57":0.09643488377332687,"58":-0.2590494751930237,"59":0.3707728683948517,"60":0.4555862545967102,"61":-0.18737198412418365,"62":0.04023134335875511,"63":-0.09418435394763947,"64":-0.4677247405052185,"65":-0.191813662648201,"66":0.10016404092311859,"67":-0.008561372756958008,"68":0.1006203442811966,"69":0.6296069622039795,"70":0.07683393359184265,"71":0.18507099151611328,"72":0.2230110764503479,"73":-0.33066698908805847,"74":-0.21966268122196198,"75":-0.3073286712169647,"76":-0.324197381734848,"77":0.03555548936128616,"78":0.17612801492214203,"79":0.31842681765556335,"80":-0.5209670662879944,"81":0.08436615020036697,"82":-0.33638253808021545,"83":0.3762735426425934,"84":0.016941046342253685,"85":-0.01134833600372076,"86":-0.03192128613591194,"87":0.27033695578575134,"88":0.5100385546684265,"89":0.11550622433423996,"90":0.030571624636650085,"91":-0.12310479581356049,"92":-0.4761696755886078,"93":0.11354714632034302,"94":0.5070181488990784,"95":-0.14713029563426971,"96":-0.04336162284016609,"97":-0.08069740980863571,"98":-0.43148890137672424,"99":0.24528127908706665}},"9":{"bias":-0.0900137647986412,"weights":{"0":-0.8085272312164307,"1":0.19488279521465302,"2":1.0424423217773438,"3":0.5514267683029175,"4":0.3598979115486145,"5":-0.35631588101387024,"6":0.094858318567276,"7":0.6215702891349792,"8":-0.04696331173181534,"9":-0.05375434458255768,"10":-0.680282711982727,"11":0.4960627853870392,"12":-0.6526955962181091,"13":0.2424069195985794,"14":0.6680659055709839,"15":1.407488465309143,"16":0.08427279442548752,"17":-0.10139960050582886,"18":-0.4130784571170807,"19":1.3645844459533691,"20":-0.2839890718460083,"21":0.1985982209444046,"22":-0.6247929930686951,"23":0.49169301986694336,"24":-0.5456952452659607,"25":-0.6964744329452515,"26":0.7325954437255859,"27":-0.5051379799842834,"28":0.5884565114974976,"29":-0.15228629112243652,"30":0.29906561970710754,"31":0.6491555571556091,"32":-0.6019121408462524,"33":-0.2777804434299469,"34":-0.06232823058962822,"35":0.7091023921966553,"36":-0.5561710000038147,"37":0.570660412311554,"38":-0.2824847400188446,"39":-0.1036163717508316,"40":0.16437804698944092,"41":0.18197350203990936,"42":-0.0976020023226738,"43":0.09047476947307587,"44":0.08825304359197617,"45":-0.22332355380058289,"46":0.5794321894645691,"47":0.4706152081489563,"48":0.1944199651479721,"49":0.35247617959976196,"50":-0.955764889717102,"51":0.565415620803833,"52":-0.2516377568244934,"53":0.2524757981300354,"54":-0.05470574274659157,"55":0.45623883605003357,"56":-0.015922298654913902,"57":-0.14173336327075958,"58":0.4733051061630249,"59":-0.4712231755256653,"60":-1.062388300895691,"61":-0.43436986207962036,"62":-0.4918563663959503,"63":0.4800703227519989,"64":0.5982804298400879,"65":-0.0570795014500618,"66":-0.012561773881316185,"67":-0.43920472264289856,"68":0.11817064136266708,"69":-0.3122463524341583,"70":-0.3170930743217468,"71":0.6246223449707031,"72":0.4689086675643921,"73":-0.2935895621776581,"74":-0.13333284854888916,"75":-0.15935681760311127,"76":-0.3908661901950836,"77":-0.04186977446079254,"78":0.9797202944755554,"79":0.0683472603559494,"80":-0.5017713308334351,"81":-0.2893106937408447,"82":-0.09730932116508484,"83":-0.31068217754364014,"84":0.512789249420166,"85":-0.5217615365982056,"86":-0.1072663962841034,"87":0.41217470169067383,"88":-0.19894789159297943,"89":-0.0028752251528203487,"90":-0.6862815618515015,"91":0.2457624077796936,"92":0.26781290769577026,"93":-0.33287596702575684,"94":0.14763420820236206,"95":-0.7944003939628601,"96":-0.39649367332458496,"97":0.0779830813407898,"98":0.031088560819625854,"99":0.13268005847930908}},"10":{"bias":0.09090637415647507,"weights":{"0":0.42503565549850464,"1":-0.47741127014160156,"2":0.607587456703186,"3":1.0256506204605103,"4":-0.008120552636682987,"5":0.4800536036491394,"6":-0.269424706697464,"7":0.48949187994003296,"8":-0.0860532745718956,"9":0.33990466594696045,"10":-0.9193907380104065,"11":0.4464518427848816,"12":0.1743374913930893,"13":-0.3862147629261017,"14":-0.11725424975156784,"15":-0.12075789272785187,"16":0.45697686076164246,"17":-0.3428175151348114,"18":0.06910709291696548,"19":0.2513153851032257,"20":-0.5670140981674194,"21":0.7992026209831238,"22":0.42631927132606506,"23":-0.14934587478637695,"24":0.3764130175113678,"25":-0.6348264813423157,"26":-0.5708354711532593,"27":-0.260248064994812,"28":-0.25647884607315063,"29":-0.5571787357330322,"30":0.19076389074325562,"31":0.047041259706020355,"32":-0.7703185677528381,"33":0.7014935612678528,"34":-0.12315378338098526,"35":0.37157315015792847,"36":-0.18153420090675354,"37":-0.5130633115768433,"38":-0.046246860176324844,"39":0.5457866191864014,"40":-0.2772451639175415,"41":0.3634359538555145,"42":-0.4802766442298889,"43":0.641434371471405,"44":0.14949798583984375,"45":-0.2684253752231598,"46":-0.005785615183413029,"47":-0.1975516825914383,"48":-0.46543681621551514,"49":-0.20402704179286957,"50":-0.35745948553085327,"51":-0.4714846909046173,"52":-0.31288933753967285,"53":-0.3716048002243042,"54":0.28997567296028137,"55":-0.29644155502319336,"56":-0.18831922113895416,"57":0.10763438045978546,"58":-0.1311989724636078,"59":0.7589263319969177,"60":0.10905221104621887,"61":0.021678414195775986,"62":0.42941007018089294,"63":0.13858915865421295,"64":-0.07796476781368256,"65":-0.21186137199401855,"66":-0.19357869029045105,"67":0.028983160853385925,"68":-0.02437657304108143,"69":0.3039734661579132,"70":-0.3050575256347656,"71":0.11918744444847107,"72":0.5388830304145813,"73":-0.08747446537017822,"74":-0.4844318628311157,"75":-0.2733898162841797,"76":-0.29340222477912903,"77":0.27867645025253296,"78":0.10815568268299103,"79":0.41785040497779846,"80":-0.27980315685272217,"81":-0.7525321841239929,"82":0.0382760725915432,"83":0.33100444078445435,"84":0.058960918337106705,"85":0.1764702945947647,"86":0.29413992166519165,"87":0.741087794303894,"88":0.20967349410057068,"89":0.27778124809265137,"90":-0.40378090739250183,"91":0.2405467927455902,"92":-0.1686011254787445,"93":0.39208221435546875,"94":0.11662765592336655,"95":0.07036170363426208,"96":-0.6992261409759521,"97":-0.3735960125923157,"98":-0.29265812039375305,"99":0.5924085378646851}},"11":{"bias":0.2373581975698471,"weights":{"0":-2.4610965251922607,"1":1.9351030588150024,"2":-0.6105248332023621,"3":0.3240434527397156,"4":-0.854319155216217,"5":1.0432324409484863,"6":0.4038033187389374,"7":-0.8952103853225708,"8":0.02096996083855629,"9":1.967275857925415,"10":-0.7745906710624695,"11":-3.2483394145965576,"12":-2.2990753650665283,"13":-2.2480580806732178,"14":2.690706968307495,"15":-1.209710717201233,"16":1.0705569982528687,"17":0.9824255108833313,"18":-0.6584884524345398,"19":-0.639012336730957,"20":-0.8438405394554138,"21":-0.25360754132270813,"22":-0.25736039876937866,"23":-3.724393606185913,"24":-0.13569572567939758,"25":-1.476589322090149,"26":1.4877188205718994,"27":-2.163510322570801,"28":1.3141789436340332,"29":-0.7984430193901062,"30":1.4617919921875,"31":-0.6878927946090698,"32":-0.4569324851036072,"33":0.3409055769443512,"34":-0.40788525342941284,"35":-2.5777227878570557,"36":-0.44176381826400757,"37":0.577573299407959,"38":-1.0047965049743652,"39":-2.5064001083374023,"40":-1.1096292734146118,"41":1.6543806791305542,"42":-0.8545536994934082,"43":-1.965695858001709,"44":1.346429467201233,"45":-0.10873617976903915,"46":2.205092191696167,"47":-1.247694730758667,"48":0.07080022245645523,"49":-0.8287116289138794,"50":-0.8675536513328552,"51":-1.5953559875488281,"52":-0.291515588760376,"53":3.123039960861206,"54":0.10174161940813065,"55":-0.8856057524681091,"56":1.1422274112701416,"57":-1.217198371887207,"58":0.8740812540054321,"59":-2.5408713817596436,"60":-2.413374662399292,"61":-1.2142773866653442,"62":-1.7826333045959473,"63":0.8653873801231384,"64":1.115671992301941,"65":0.29722532629966736,"66":1.1608917713165283,"67":-2.2654829025268555,"68":1.7961446046829224,"69":-0.2147093564271927,"70":-0.8608441352844238,"71":-0.9747037887573242,"72":0.5639996528625488,"73":-1.1212795972824097,"74":0.04900113493204117,"75":-0.933565080165863,"76":-1.258902668952942,"77":1.0334233045578003,"78":0.6213138103485107,"79":-1.7406803369522095,"80":0.6922324895858765,"81":-0.03600955754518509,"82":0.8063035607337952,"83":-2.304988145828247,"84":0.6607121229171753,"85":0.6764087677001953,"86":1.6135995388031006,"87":-2.1591014862060547,"88":-2.200221061706543,"89":-1.2648844718933105,"90":-1.963354229927063,"91":-0.4570605158805847,"92":3.3365397453308105,"93":1.5379981994628906,"94":-1.0979785919189453,"95":-1.844875693321228,"96":-0.97515869140625,"97":-0.5417618155479431,"98":0.07588943094015121,"99":-2.3000245094299316}},"12":{"bias":0.17425166070461273,"weights":{"0":-1.9598537683486938,"1":1.8040190935134888,"2":-0.45782944560050964,"3":0.0008181106531992555,"4":-0.9217463135719299,"5":0.9066073894500732,"6":0.5192351341247559,"7":-1.032854676246643,"8":-0.21943299472332,"9":2.1316659450531006,"10":-0.7378175854682922,"11":-2.9568440914154053,"12":-2.3604934215545654,"13":-2.0477075576782227,"14":2.3316736221313477,"15":-1.0113483667373657,"16":1.2768934965133667,"17":1.1668897867202759,"18":-0.6161456108093262,"19":-0.39850175380706787,"20":-0.7431260347366333,"21":0.05693849176168442,"22":-0.15091866254806519,"23":-3.095855712890625,"24":-0.3952167332172394,"25":-1.2639837265014648,"26":1.2199627161026,"27":-1.929566502571106,"28":1.2452845573425293,"29":-1.3697150945663452,"30":1.440313696861267,"31":-0.6732441186904907,"32":-0.6582506895065308,"33":0.7064073085784912,"34":-0.3709329068660736,"35":-2.27882719039917,"36":-0.35735470056533813,"37":0.46135038137435913,"38":-0.8701126575469971,"39":-2.3361523151397705,"40":-1.2452917098999023,"41":1.3588896989822388,"42":-0.7823467254638672,"43":-1.540085792541504,"44":0.9019216895103455,"45":0.10999380052089691,"46":2.1600348949432373,"47":-1.3009098768234253,"48":0.15894542634487152,"49":-1.0382920503616333,"50":-0.6864024996757507,"51":-1.902290940284729,"52":0.15982376039028168,"53":2.9812164306640625,"54":-0.17513294517993927,"55":-1.0134878158569336,"56":0.9630100131034851,"57":-0.9247002601623535,"58":0.767586886882782,"59":-2.231585741043091,"60":-2.3359737396240234,"61":-0.9911632537841797,"62":-1.7554028034210205,"63":0.7266536355018616,"64":0.9820593595504761,"65":0.41326650977134705,"66":1.524412989616394,"67":-2.1169075965881348,"68":1.893760085105896,"69":-0.33326831459999084,"70":-0.8504223227500916,"71":-0.9194896221160889,"72":0.5977584719657898,"73":-0.8739128112792969,"74":0.11986394226551056,"75":-1.4528230428695679,"76":-1.054240345954895,"77":0.6667100191116333,"78":0.6589277386665344,"79":-1.974694013595581,"80":0.5895947813987732,"81":-0.3542833626270294,"82":0.3212105929851532,"83":-2.1837961673736572,"84":0.7157108187675476,"85":1.2086273431777954,"86":1.6742660999298096,"87":-2.100677490234375,"88":-2.500434637069702,"89":-1.066205382347107,"90":-1.7429637908935547,"91":-0.7292876243591309,"92":3.234606981277466,"93":1.50081467628479,"94":-1.2896146774291992,"95":-1.8179734945297241,"96":-0.9973650574684143,"97":-0.7555519342422485,"98":-0.3274175226688385,"99":-2.2196757793426514}},"13":{"bias":-0.16420072317123413,"weights":{"0":-0.0068086846731603146,"1":-0.43433016538619995,"2":0.8733404874801636,"3":0.3931065797805786,"4":0.30309224128723145,"5":-0.21417436003684998,"6":0.1466211974620819,"7":-0.19471441209316254,"8":-0.006474942434579134,"9":-0.22708861529827118,"10":-0.2299547642469406,"11":0.057191718369722366,"12":-0.17896537482738495,"13":-0.059028152376413345,"14":-0.24063722789287567,"15":0.012037646025419235,"16":0.12172500044107437,"17":-0.2422560751438141,"18":-0.016927756369113922,"19":0.02155609242618084,"20":0.12685823440551758,"21":0.3264046013355255,"22":-0.3739250600337982,"23":-0.1908731758594513,"24":0.09081612527370453,"25":-0.4800019860267639,"26":0.09263540059328079,"27":-0.20466181635856628,"28":-0.1315741240978241,"29":-0.39672303199768066,"30":-0.058894407004117966,"31":-0.09720262140035629,"32":-0.1398494690656662,"33":0.3961687684059143,"34":0.02142549492418766,"35":0.1031867191195488,"36":-0.16789405047893524,"37":-0.623547375202179,"38":0.24769660830497742,"39":0.43156522512435913,"40":-0.16128236055374146,"41":0.4314303398132324,"42":-0.08012543618679047,"43":-0.12814608216285706,"44":0.15649628639221191,"45":0.05931380018591881,"46":-0.16849173605442047,"47":-0.2473262995481491,"48":0.10055364668369293,"49":-0.12671156227588654,"50":-0.18023104965686798,"51":-0.08018788695335388,"52":-0.0005687312223017216,"53":0.06041381508111954,"54":-0.024141309782862663,"55":-0.19156819581985474,"56":-0.20151172578334808,"57":0.04984499141573906,"58":0.053520817309617996,"59":-0.12742896378040314,"60":0.27583158016204834,"61":0.052210066467523575,"62":-0.14295755326747894,"63":0.029400434345006943,"64":0.0937097817659378,"65":0.15147048234939575,"66":0.20123061537742615,"67":-0.33089300990104675,"68":-0.19070693850517273,"69":-0.0809461772441864,"70":-0.08947557955980301,"71":0.26910096406936646,"72":-0.1323390007019043,"73":-0.16987504065036774,"74":-0.2505318224430084,"75":0.020162343978881836,"76":-0.0618574395775795,"77":-0.03836042061448097,"78":0.10098523646593094,"79":0.32611867785453796,"80":-0.3253185749053955,"81":-0.04439850151538849,"82":-0.26252442598342896,"83":0.4037982225418091,"84":0.2086079716682434,"85":-0.2022923082113266,"86":-0.38830214738845825,"87":0.0037527838721871376,"88":-0.0003389897756278515,"89":0.007757058832794428,"90":0.011423008516430855,"91":0.04351102560758591,"92":0.022818466648459435,"93":-0.29824334383010864,"94":0.5218402743339539,"95":-0.1095622107386589,"96":-0.3454708755016327,"97":0.18535974621772766,"98":-0.23239994049072266,"99":0.3352734446525574}},"14":{"bias":-0.07791461795568466,"weights":{"0":-0.4734964966773987,"1":0.18192724883556366,"2":0.004825980868190527,"3":-0.032580696046352386,"4":-0.23161464929580688,"5":0.3148900270462036,"6":-0.09008488804101944,"7":-0.2981826364994049,"8":-0.15663376450538635,"9":0.22947940230369568,"10":-0.06187595799565315,"11":-0.6535861492156982,"12":-0.6484960913658142,"13":-0.4473261535167694,"14":0.4994798004627228,"15":-0.31103789806365967,"16":-0.1031627207994461,"17":0.12906797230243683,"18":-0.023478619754314423,"19":0.12447279691696167,"20":-0.004607710521668196,"21":-0.033904992043972015,"22":-0.011915010400116444,"23":-0.4158901274204254,"24":0.04961666464805603,"25":-0.22881801426410675,"26":0.1579241305589676,"27":-0.1883200705051422,"28":0.37908393144607544,"29":-0.009135864675045013,"30":0.41862666606903076,"31":-0.0962635800242424,"32":-0.22268877923488617,"33":-0.05968678370118141,"34":-0.037341248244047165,"35":-0.6845481395721436,"36":-0.27573028206825256,"37":0.2867860496044159,"38":-0.069843590259552,"39":-0.6420930624008179,"40":-0.4008882939815521,"41":0.2226412445306778,"42":0.0030290773138403893,"43":-0.38154664635658264,"44":0.2492208480834961,"45":0.17244192957878113,"46":0.24002179503440857,"47":0.06427046656608582,"48":0.13744014501571655,"49":-0.23368585109710693,"50":-0.2182542234659195,"51":-0.2327255755662918,"52":-0.10461798310279846,"53":0.4604795575141907,"54":0.013253451324999332,"55":-0.029644286260008812,"56":-0.09620805084705353,"57":-0.18242987990379333,"58":0.27328169345855713,"59":-0.42760783433914185,"60":-0.8033396601676941,"61":-0.3894753158092499,"62":-0.24009041488170624,"63":0.14002567529678345,"64":0.3878597617149353,"65":-0.10363363474607468,"66":0.21043968200683594,"67":-0.3509274423122406,"68":0.19886760413646698,"69":0.14414067566394806,"70":-0.02061416581273079,"71":-0.13415391743183136,"72":0.01614880934357643,"73":-0.06223566085100174,"74":-0.07716898620128632,"75":-0.5735524296760559,"76":0.036058925092220306,"77":0.060581810772418976,"78":0.14941246807575226,"79":-0.5686711668968201,"80":-0.15007495880126953,"81":0.02707560919225216,"82":0.23770733177661896,"83":-0.6423749327659607,"84":-0.07111044228076935,"85":0.31112849712371826,"86":0.08672207593917847,"87":-0.30596283078193665,"88":-0.562084436416626,"89":0.02419140934944153,"90":-0.3402920067310333,"91":-0.4377868175506592,"92":0.8373444080352783,"93":0.29326289892196655,"94":-0.005942118354141712,"95":-0.33828261494636536,"96":-0.21946682035923004,"97":-0.19714559614658356,"98":0.1509467214345932,"99":-0.7211204767227173}},"15":{"bias":-0.19645683467388153,"weights":{"0":0.3565281927585602,"1":0.35457828640937805,"2":-0.29744893312454224,"3":-0.16388309001922607,"4":0.4116554856300354,"5":-0.16170145571231842,"6":-0.43122971057891846,"7":0.1567847728729248,"8":-0.4482760429382324,"9":-0.13444823026657104,"10":0.06471066176891327,"11":0.6981803774833679,"12":0.3654954433441162,"13":0.3299151062965393,"14":-0.32498055696487427,"15":-0.23687231540679932,"16":0.2115890383720398,"17":0.10086260735988617,"18":-0.360000342130661,"19":-0.10564818233251572,"20":-0.051285285502672195,"21":-0.40466785430908203,"22":0.2711644172668457,"23":-0.1062416285276413,"24":0.04548637568950653,"25":-0.04950805753469467,"26":-0.4707949459552765,"27":0.4070141911506653,"28":-0.07841164618730545,"29":0.4505021274089813,"30":-0.03665928542613983,"31":-0.18661466240882874,"32":0.564422070980072,"33":-0.6215274333953857,"34":0.15193811058998108,"35":0.12319429218769073,"36":-0.0970657542347908,"37":-1.004108190536499,"38":0.3704005181789398,"39":-0.16858230531215668,"40":-0.32544344663619995,"41":0.2206096202135086,"42":-0.1269734501838684,"43":-0.1735869199037552,"44":-0.08451316505670547,"45":-0.34114548563957214,"46":-0.4803115725517273,"47":0.09492957592010498,"48":0.02690240927040577,"49":-0.595829427242279,"50":0.44553419947624207,"51":-0.3416665196418762,"52":-0.5064519047737122,"53":0.0651138499379158,"54":-0.38415634632110596,"55":-0.07888217270374298,"56":-0.08339861035346985,"57":0.2865798771381378,"58":-0.2849682569503784,"59":0.25900575518608093,"60":0.3112576901912689,"61":-0.5855870842933655,"62":0.6848028898239136,"63":-0.21522516012191772,"64":-1.0488077402114868,"65":-0.37865081429481506,"66":-0.0880187451839447,"67":0.0939098373055458,"68":0.24920214712619781,"69":0.8636232614517212,"70":-0.18616150319576263,"71":0.16480787098407745,"72":0.569642961025238,"73":-0.47083741426467896,"74":0.022303590551018715,"75":-0.5234590768814087,"76":0.35479143261909485,"77":-0.6086441278457642,"78":0.06489957869052887,"79":-0.09353375434875488,"80":-0.9916206002235413,"81":0.03536214679479599,"82":-0.21735838055610657,"83":0.4364722669124603,"84":-0.6129913926124573,"85":0.8709465265274048,"86":-0.8142579793930054,"87":0.5810977220535278,"88":0.8976652026176453,"89":0.07354001700878143,"90":0.2914375960826874,"91":-0.318462997674942,"92":-0.4057910740375519,"93":-0.19796352088451385,"94":-0.0072506568394601345,"95":0.46134766936302185,"96":0.28877002000808716,"97":-0.5985521674156189,"98":0.44237008690834045,"99":-0.4709394574165344}},"16":{"bias":-0.10746392607688904,"weights":{"0":0.8666310906410217,"1":-0.3390125036239624,"2":-0.16091039776802063,"3":-0.22259129583835602,"4":0.5633931159973145,"5":-0.09300368279218674,"6":0.3603421449661255,"7":0.269282728433609,"8":-0.656642735004425,"9":0.26643985509872437,"10":-0.10379846394062042,"11":0.6391409039497375,"12":0.4029328227043152,"13":0.21451787650585175,"14":-0.39836183190345764,"15":0.13439078629016876,"16":-0.0021989010274410248,"17":-0.1176467016339302,"18":-0.10713415592908859,"19":0.1466657966375351,"20":0.08319444954395294,"21":0.3210636377334595,"22":-0.06989684700965881,"23":0.34918835759162903,"24":0.6279422044754028,"25":0.32691845297813416,"26":-0.5515670776367188,"27":0.7342274188995361,"28":-0.5562503933906555,"29":0.12063898891210556,"30":-0.10460114479064941,"31":0.3311039209365845,"32":-0.07327083498239517,"33":-0.12821780145168304,"34":0.1424849033355713,"35":0.42671993374824524,"36":-0.06350229680538177,"37":-0.07505698502063751,"38":0.5335980653762817,"39":0.19182372093200684,"40":-0.4283120334148407,"41":-0.33150002360343933,"42":0.1509716957807541,"43":0.502202033996582,"44":-0.025424141436815262,"45":0.046532947570085526,"46":-0.560215950012207,"47":0.24808627367019653,"48":-0.19479604065418243,"49":-0.2762538194656372,"50":0.034882303327322006,"51":0.07906565070152283,"52":0.23358154296875,"53":-0.3803218901157379,"54":-0.3377994894981384,"55":-0.23200136423110962,"56":-0.2975026071071625,"57":0.5678510069847107,"58":-0.0015579761238768697,"59":0.7098457217216492,"60":0.4197046160697937,"61":-0.15955643355846405,"62":0.5965265035629272,"63":0.09296510368585587,"64":-0.2811773717403412,"65":-0.013640714809298515,"66":-0.29557859897613525,"67":0.38308438658714294,"68":-0.21196526288986206,"69":0.01712985336780548,"70":-0.38011038303375244,"71":0.26931554079055786,"72":0.041324444115161896,"73":0.0005332516157068312,"74":0.30756866931915283,"75":0.5455579161643982,"76":0.18900467455387115,"77":-0.18853147327899933,"78":-0.25176477432250977,"79":0.39573729038238525,"80":-0.1842752993106842,"81":0.026914319023489952,"82":-0.45203423500061035,"83":0.4384949803352356,"84":0.24178870022296906,"85":-0.2275151163339615,"86":0.3862084150314331,"87":0.5450409650802612,"88":0.002430720254778862,"89":0.24906429648399353,"90":0.5176464915275574,"91":0.08135721832513809,"92":-0.2590215504169464,"93":-0.18210437893867493,"94":-0.035937123000621796,"95":0.31918537616729736,"96":-0.1659625768661499,"97":0.04197580739855766,"98":-0.20489801466464996,"99":0.32375043630599976}},"17":{"bias":-0.20865261554718018,"weights":{"0":1.4860423803329468,"1":-1.0978422164916992,"2":-0.272917777299881,"3":1.0600477457046509,"4":0.641308605670929,"5":0.8547748327255249,"6":0.2711939513683319,"7":1.60319983959198,"8":0.1573258340358734,"9":-1.158490538597107,"10":0.497393399477005,"11":1.22659170627594,"12":1.4030941724777222,"13":1.210153341293335,"14":-1.2207316160202026,"15":0.9382781982421875,"16":-1.0077805519104004,"17":-1.494904637336731,"18":0.37875989079475403,"19":-0.05245146155357361,"20":0.9170124530792236,"21":0.9561139941215515,"22":0.011265555396676064,"23":1.2640814781188965,"24":0.0022190380841493607,"25":0.6667916774749756,"26":-0.6868913769721985,"27":1.1926372051239014,"28":-0.4259483516216278,"29":-0.9250118136405945,"30":-0.9837958216667175,"31":-0.3925631046295166,"32":-0.5176965594291687,"33":0.22441162168979645,"34":-0.041998278349637985,"35":1.0173826217651367,"36":0.843806803226471,"37":-1.2318222522735596,"38":1.097494125366211,"39":1.0368157625198364,"40":-0.8178834319114685,"41":-0.04519210383296013,"42":-0.11321204900741577,"43":-0.0005744325462728739,"44":0.5521000027656555,"45":0.287954717874527,"46":-0.3187692165374756,"47":1.1959331035614014,"48":0.3068717420101166,"49":-0.2713469862937927,"50":0.04544525966048241,"51":-0.05431602895259857,"52":-0.005821844097226858,"53":-1.3301053047180176,"54":0.14299744367599487,"55":-0.2755272090435028,"56":-1.524871587753296,"57":1.5222723484039307,"58":-0.8753368258476257,"59":0.7440922260284424,"60":1.6297274827957153,"61":0.14767906069755554,"62":0.8550361394882202,"63":-0.9373270273208618,"64":-0.6366494297981262,"65":0.12390697747468948,"66":-0.4800337255001068,"67":1.0970348119735718,"68":-0.21831421554088593,"69":-0.30160728096961975,"70":0.2400657683610916,"71":0.15674884617328644,"72":-0.7837229371070862,"73":-0.20703080296516418,"74":-0.6723909378051758,"75":-0.12807339429855347,"76":0.16996347904205322,"77":-0.06084408611059189,"78":-0.5224021077156067,"79":1.1796754598617554,"80":0.9553633332252502,"81":-0.3648791015148163,"82":-0.13432514667510986,"83":0.33698126673698425,"84":-1.018796682357788,"85":0.5609938502311707,"86":-0.44121265411376953,"87":0.9654146432876587,"88":0.10340994596481323,"89":0.4774038791656494,"90":1.4026390314102173,"91":-0.7082959413528442,"92":-0.13533177971839905,"93":-0.8225958943367004,"94":-0.37512436509132385,"95":-0.1267126500606537,"96":0.6121818423271179,"97":0.20803511142730713,"98":-0.17756453156471252,"99":-0.06025698781013489}},"18":{"bias":0.0342976413667202,"weights":{"0":0.07290905714035034,"1":0.6889340281486511,"2":-0.41671159863471985,"3":0.016762176528573036,"4":-0.2165185958147049,"5":0.11616717278957367,"6":-0.7225279808044434,"7":0.6240942478179932,"8":0.35984674096107483,"9":-0.2593064606189728,"10":-0.28308191895484924,"11":0.15627828240394592,"12":0.3284201920032501,"13":0.029418349266052246,"14":-0.5514268279075623,"15":-0.12293967604637146,"16":-0.42376595735549927,"17":-0.09426271170377731,"18":0.21714657545089722,"19":0.32452911138534546,"20":-0.5752832293510437,"21":-0.43626707792282104,"22":0.31915509700775146,"23":0.47152137756347656,"24":0.48895955085754395,"25":-0.13011591136455536,"26":-0.12106215208768845,"27":0.6806878447532654,"28":-0.31095820665359497,"29":0.4018811583518982,"30":-0.341940313577652,"31":-0.39703917503356934,"32":0.16271911561489105,"33":0.14707589149475098,"34":0.24636884033679962,"35":-0.012663884088397026,"36":0.3702087104320526,"37":-0.5025509595870972,"38":0.09951508790254593,"39":-0.30005180835723877,"40":-0.525966227054596,"41":-0.8169368505477905,"42":-0.002015939448028803,"43":0.12661689519882202,"44":-0.6496829986572266,"45":0.1979799121618271,"46":-0.4086650609970093,"47":0.26520296931266785,"48":0.7890141010284424,"49":0.003687894670292735,"50":-0.326632559299469,"51":-0.408550500869751,"52":-0.20313048362731934,"53":-0.22289016842842102,"54":-0.02388269267976284,"55":0.3125298023223877,"56":-0.23841744661331177,"57":-0.598351776599884,"58":-0.29211634397506714,"59":0.08327485620975494,"60":-0.7499033808708191,"61":0.714923083782196,"62":0.1397404968738556,"63":-0.40435126423835754,"64":0.3953602612018585,"65":-0.3948929011821747,"66":0.143705815076828,"67":-0.11147769540548325,"68":0.09300606697797775,"69":-0.3723461627960205,"70":-0.46951326727867126,"71":-0.10289479792118073,"72":-0.7453858256340027,"73":0.262113481760025,"74":-0.18160942196846008,"75":-0.3125115931034088,"76":0.834153413772583,"77":0.29438769817352295,"78":0.2674156427383423,"79":-0.5359665155410767,"80":-0.16238538920879364,"81":-0.7202543020248413,"82":0.14453653991222382,"83":0.01358921080827713,"84":-1.3447498083114624,"85":0.8289390206336975,"86":-0.5449510216712952,"87":0.3901427984237671,"88":0.49672919511795044,"89":0.6992886066436768,"90":-0.0017467470606788993,"91":-0.5727224946022034,"92":0.1611045002937317,"93":-0.6093997359275818,"94":0.3359942138195038,"95":0.4010513424873352,"96":0.20420193672180176,"97":-1.2685257196426392,"98":0.7008943557739258,"99":-0.006873017642647028}},"19":{"bias":-0.17823360860347748,"weights":{"0":-1.1369078159332275,"1":-0.5078761577606201,"2":0.7982946634292603,"3":-0.28495362401008606,"4":-1.1649177074432373,"5":-0.06136133894324303,"6":0.8930225968360901,"7":-0.37327373027801514,"8":0.7602097988128662,"9":-1.4802159070968628,"10":0.9236889481544495,"11":-0.3198820650577545,"12":-0.8125172257423401,"13":1.4169663190841675,"14":-1.0274618864059448,"15":1.1047916412353516,"16":-0.07105261087417603,"17":-0.9092206358909607,"18":-0.16863971948623657,"19":0.0794592872262001,"20":-0.061507292091846466,"21":-0.20400863885879517,"22":-0.8651250600814819,"23":0.2705114781856537,"24":0.19699564576148987,"25":0.33633458614349365,"26":-0.48374298214912415,"27":-0.9398512244224548,"28":-0.7132548093795776,"29":-0.5430616736412048,"30":1.386199951171875,"31":1.0370385646820068,"32":-0.4809145927429199,"33":1.153085708618164,"34":-0.8570054173469543,"35":0.8913186192512512,"36":0.2632817029953003,"37":-0.4370867609977722,"38":0.1910170018672943,"39":0.4167347550392151,"40":0.4683127701282501,"41":0.7544394135475159,"42":0.5973612070083618,"43":-0.6136276125907898,"44":0.31550970673561096,"45":-0.5176053047180176,"46":-1.4282208681106567,"47":-0.5791653990745544,"48":-0.39610832929611206,"49":0.6441332101821899,"50":0.27816838026046753,"51":0.33201900124549866,"52":0.37955108284950256,"53":-0.839310348033905,"54":-0.3628914952278137,"55":0.30971643328666687,"56":-0.22493401169776917,"57":1.214410424232483,"58":-0.44859495759010315,"59":-0.1237412616610527,"60":-0.7429802417755127,"61":-1.4476728439331055,"62":-0.3140326142311096,"63":0.1228710487484932,"64":0.9335862398147583,"65":0.29205167293548584,"66":-0.5278908610343933,"67":0.7031963467597961,"68":-0.5785600543022156,"69":-0.5997959971427917,"70":-0.17570769786834717,"71":0.696148693561554,"72":-0.3103403151035309,"73":0.26675188541412354,"74":-0.47681352496147156,"75":0.9485783576965332,"76":0.07901516556739807,"77":0.9153484106063843,"78":0.5626090168952942,"79":-0.25993484258651733,"80":-0.8464983105659485,"81":-1.2045546770095825,"82":0.010066223330795765,"83":0.44001808762550354,"84":0.6441527009010315,"85":-0.2048942893743515,"86":0.02607554756104946,"87":0.6624577045440674,"88":0.005959123373031616,"89":-1.4369723796844482,"90":-0.3921091854572296,"91":-0.08173781633377075,"92":-1.2559648752212524,"93":0.11303453892469406,"94":-1.052083969116211,"95":-0.8749907612800598,"96":1.2663031816482544,"97":-0.2123091220855713,"98":-0.20992663502693176,"99":1.1545859575271606}},"20":{"bias":-0.21592888236045837,"weights":{"0":0.7919497489929199,"1":-0.4938531219959259,"2":-0.19478261470794678,"3":-0.37695732712745667,"4":0.5167747139930725,"5":-0.5858443379402161,"6":0.21925128996372223,"7":0.15295350551605225,"8":-0.6982623934745789,"9":0.15447553992271423,"10":0.11599493026733398,"11":0.5820456743240356,"12":0.26549962162971497,"13":0.17317627370357513,"14":-0.23746488988399506,"15":0.003872943576425314,"16":0.27104613184928894,"17":0.1623847782611847,"18":-0.2079772800207138,"19":-0.09010475873947144,"20":0.1597190946340561,"21":0.031209610402584076,"22":-0.15419788658618927,"23":0.11753884702920914,"24":0.2745737135410309,"25":0.48974335193634033,"26":-0.38750478625297546,"27":0.8272820711135864,"28":-0.45323723554611206,"29":0.18108440935611725,"30":-0.19961191713809967,"31":0.2867869436740875,"32":0.08979920297861099,"33":-0.30318182706832886,"34":-0.11362612247467041,"35":0.3166447877883911,"36":-0.3443668782711029,"37":-0.13972057402133942,"38":0.6775407791137695,"39":-0.1817500740289688,"40":-0.17172180116176605,"41":-0.2842225134372711,"42":0.2750011384487152,"43":0.22749243676662445,"44":0.11281676590442657,"45":-0.26218122243881226,"46":-0.5027969479560852,"47":-0.11685141175985336,"48":-0.18399912118911743,"49":-0.3789180815219879,"50":-0.062185138463974,"51":0.109422467648983,"52":0.18364973366260529,"53":0.08003111183643341,"54":-0.3764837682247162,"55":-0.012499355711042881,"56":-0.16575437784194946,"57":0.9300476312637329,"58":-0.29711610078811646,"59":0.5191535353660583,"60":0.33572858572006226,"61":-0.2716183066368103,"62":0.3010539412498474,"63":-0.11081524938344955,"64":-0.2451842725276947,"65":-0.13856104016304016,"66":-0.3161909580230713,"67":0.15229542553424835,"68":0.045362796634435654,"69":0.17211124300956726,"70":-0.19903255999088287,"71":0.05524678900837898,"72":0.06889508664608002,"73":0.05854376032948494,"74":0.1448105126619339,"75":0.17503255605697632,"76":0.014658900909125805,"77":-0.37360239028930664,"78":-0.04400063306093216,"79":0.019509650766849518,"80":-0.2613305449485779,"81":0.3010007441043854,"82":-0.5333701968193054,"83":0.28150326013565063,"84":0.0713052824139595,"85":-0.2984546422958374,"86":0.2605558931827545,"87":0.42967671155929565,"88":0.2853119969367981,"89":-0.016314323991537094,"90":0.814349889755249,"91":-0.20552119612693787,"92":-0.5950211882591248,"93":-0.029985327273607254,"94":0.013075878843665123,"95":0.5943847894668579,"96":0.03867325186729431,"97":0.3764072358608246,"98":-0.16373614966869354,"99":0.15746694803237915}},"21":{"bias":-0.19923456013202667,"weights":{"0":-1.6965843439102173,"1":-0.8902995586395264,"2":2.482379913330078,"3":2.1463048458099365,"4":0.9769012928009033,"5":-0.3616451919078827,"6":-0.2445329874753952,"7":1.5565181970596313,"8":-0.2988038659095764,"9":-0.2679540514945984,"10":0.0675472766160965,"11":1.0002468824386597,"12":0.13952518999576569,"13":0.9347533583641052,"14":-0.046027157455682755,"15":2.206765651702881,"16":-0.6289721727371216,"17":-2.5146212577819824,"18":0.07597742229700089,"19":1.0536471605300903,"20":-0.1899312436580658,"21":1.7821671962738037,"22":-1.060420274734497,"23":0.773314356803894,"24":-0.8308286666870117,"25":0.29301396012306213,"26":-0.046279121190309525,"27":-1.2122092247009277,"28":1.1569995880126953,"29":-1.3160508871078491,"30":-0.4971100687980652,"31":0.4646604359149933,"32":-2.230201005935669,"33":-0.43846067786216736,"34":0.7798562049865723,"35":1.6975473165512085,"36":-0.2643408477306366,"37":0.6638162732124329,"38":-0.948074460029602,"39":1.665871024131775,"40":0.8481336236000061,"41":0.6711817979812622,"42":-0.295440137386322,"43":0.1757541298866272,"44":0.7799029350280762,"45":-0.49706193804740906,"46":0.3172689974308014,"47":1.0842468738555908,"48":0.09552597254514694,"49":0.8048959970474243,"50":-1.043164610862732,"51":0.80588698387146,"52":-1.3731998205184937,"53":0.8479593396186829,"54":-0.4545310437679291,"55":0.14295658469200134,"56":0.14983053505420685,"57":-0.6867200136184692,"58":1.3866883516311646,"59":0.3440970778465271,"60":-0.13094764947891235,"61":-0.43251410126686096,"62":-1.083020567893982,"63":1.4898831844329834,"64":-0.3857693076133728,"65":0.19431957602500916,"66":-0.30545127391815186,"67":0.7962409257888794,"68":0.6823557615280151,"69":-0.650168776512146,"70":0.42583537101745605,"71":1.193173885345459,"72":-0.8324604630470276,"73":-1.7668650150299072,"74":-0.2127375602722168,"75":-0.2508218586444855,"76":-0.46812161803245544,"77":0.896360456943512,"78":-0.37489569187164307,"79":1.6557732820510864,"80":-0.2885023057460785,"81":-0.937618613243103,"82":0.6344980597496033,"83":0.03702261671423912,"84":0.04422954469919205,"85":-0.3292984068393707,"86":0.087831050157547,"87":0.894797146320343,"88":0.3695695102214813,"89":-0.39838096499443054,"90":-1.3364791870117188,"91":1.6799969673156738,"92":0.2576214671134949,"93":-0.24482029676437378,"94":-0.9073413014411926,"95":-0.1031361073255539,"96":-0.10360559076070786,"97":1.118146300315857,"98":1.001036524772644,"99":0.1880636364221573}},"22":{"bias":0.28319719433784485,"weights":{"0":-0.7308731079101562,"1":-0.3486804962158203,"2":-0.21641413867473602,"3":-0.9544903635978699,"4":0.10055828094482422,"5":-0.4192027449607849,"6":-0.2521980106830597,"7":-0.18588942289352417,"8":0.7039120197296143,"9":-0.12150442600250244,"10":0.4399794936180115,"11":-0.6385757923126221,"12":1.1369431018829346,"13":0.7423093914985657,"14":0.09353327006101608,"15":-1.2125054597854614,"16":0.12891480326652527,"17":-0.1320517212152481,"18":0.39765238761901855,"19":-1.4657022953033447,"20":1.0642935037612915,"21":-0.8337134718894958,"22":0.2503815293312073,"23":-0.1917314976453781,"24":-0.8659651279449463,"25":0.6689302325248718,"26":0.8598520755767822,"27":-0.228594109416008,"28":-0.4565962851047516,"29":0.2519477307796478,"30":-0.3128984570503235,"31":-0.573978066444397,"32":1.4196865558624268,"33":0.17031016945838928,"34":0.7820590734481812,"35":-0.8838347792625427,"36":0.5426169633865356,"37":-0.39601877331733704,"38":0.806401789188385,"39":-1.2302113771438599,"40":0.7883124351501465,"41":-0.18571069836616516,"42":0.048591870814561844,"43":-1.44133460521698,"44":-0.7693291306495667,"45":-0.5453668832778931,"46":-0.18997244536876678,"47":-0.7905950546264648,"48":1.3569618463516235,"49":0.0798817053437233,"50":0.1910822093486786,"51":-0.928203821182251,"52":-0.25297340750694275,"53":0.5173701643943787,"54":0.01135525293648243,"55":-0.07844404876232147,"56":-0.17231476306915283,"57":0.21405014395713806,"58":-0.6465471982955933,"59":-0.5407016277313232,"60":-1.6898691654205322,"61":0.5270090103149414,"62":0.1863386034965515,"63":-1.118914246559143,"64":0.7134894132614136,"65":-0.03487353399395943,"66":-0.011249912902712822,"67":-0.34135591983795166,"68":0.3049421012401581,"69":0.1542685329914093,"70":0.6427822709083557,"71":-1.5401694774627686,"72":-0.023282522335648537,"73":0.4686218500137329,"74":-0.007495662197470665,"75":-1.4984837770462036,"76":-0.3861703872680664,"77":0.27309030294418335,"78":-0.3683876097202301,"79":-1.1872586011886597,"80":-0.4355728328227997,"81":-0.13019897043704987,"82":0.622478187084198,"83":-0.4212304651737213,"84":-0.09940868616104126,"85":0.5141928791999817,"86":-1.6260181665420532,"87":-1.2488243579864502,"88":0.8217659592628479,"89":0.3344894051551819,"90":0.1803685575723648,"91":-1.7859771251678467,"92":-0.7675179243087769,"93":-0.3511362075805664,"94":1.086165428161621,"95":-0.814906895160675,"96":1.9079420566558838,"97":-1.0166621208190918,"98":2.143638849258423,"99":-1.5135363340377808}},"23":{"bias":-0.5247212052345276,"weights":{"0":0.24055008590221405,"1":0.3843616843223572,"2":-1.0064411163330078,"3":1.0113314390182495,"4":-0.1244511753320694,"5":0.5154019594192505,"6":-0.40677404403686523,"7":1.031534194946289,"8":-0.2587643265724182,"9":-0.07593539357185364,"10":-0.6435571908950806,"11":0.7304912209510803,"12":-0.6882746815681458,"13":0.08571050316095352,"14":0.0505172498524189,"15":0.6949100494384766,"16":-0.13095274567604065,"17":-0.6464495062828064,"18":0.5276650190353394,"19":0.5974130630493164,"20":0.11542405188083649,"21":0.2231941521167755,"22":-0.06196862831711769,"23":0.315456360578537,"24":-0.10394837707281113,"25":-1.0776973962783813,"26":-0.6319946646690369,"27":0.6113029718399048,"28":-0.09686500579118729,"29":0.31301283836364746,"30":0.0030582959298044443,"31":0.4463158845901489,"32":-0.6959162354469299,"33":-0.7031784057617188,"34":-0.9133405089378357,"35":0.524733304977417,"36":0.26232659816741943,"37":-0.018502453342080116,"38":-0.4459523856639862,"39":0.5640153288841248,"40":-0.6812264919281006,"41":-0.3101274371147156,"42":-0.7649229168891907,"43":1.696900725364685,"44":-0.4959120452404022,"45":0.5661136507987976,"46":0.9224697351455688,"47":1.0622423887252808,"48":-0.5300332307815552,"49":-1.2546195983886719,"50":-0.18094559013843536,"51":0.3855052888393402,"52":-0.16136294603347778,"53":0.036384664475917816,"54":-0.8427504301071167,"55":0.42164844274520874,"56":-0.3585411310195923,"57":-0.9491754770278931,"58":-0.20719143748283386,"59":0.7124791741371155,"60":1.0439337491989136,"61":-0.7292734384536743,"62":0.17391037940979004,"63":0.8765826225280762,"64":-1.444172739982605,"65":0.7760619521141052,"66":-0.2801946699619293,"67":0.5783916115760803,"68":0.6397989988327026,"69":-0.11678529530763626,"70":-0.4054338335990906,"71":0.46815982460975647,"72":0.1642584651708603,"73":0.1370401829481125,"74":0.12148256599903107,"75":0.6029067635536194,"76":0.0008049134048633277,"77":-0.06669698655605316,"78":0.09013646841049194,"79":1.1261928081512451,"80":-0.04971179738640785,"81":-0.007710600271821022,"82":0.44332295656204224,"83":0.14894366264343262,"84":-1.1094913482666016,"85":-0.12456958740949631,"86":-0.36951300501823425,"87":1.4706186056137085,"88":-0.3267979621887207,"89":0.03092457540333271,"90":0.08218781650066376,"91":0.8995330929756165,"92":0.4101843535900116,"93":-0.9668133854866028,"94":-1.33082914352417,"95":1.1417752504348755,"96":-0.5307881236076355,"97":-0.4602537453174591,"98":-0.1537155658006668,"99":0.6906539797782898}},"24":{"bias":0.1349293440580368,"weights":{"0":0.5706536769866943,"1":-0.06539350748062134,"2":-1.0468508005142212,"3":-0.5435681939125061,"4":0.7105684280395508,"5":0.0016850087558850646,"6":0.10812416672706604,"7":0.47147315740585327,"8":-0.670677661895752,"9":-0.12492454797029495,"10":0.09436315298080444,"11":0.022094540297985077,"12":0.5848991870880127,"13":-0.20687909424304962,"14":-0.7535391449928284,"15":-0.42849522829055786,"16":-0.27174463868141174,"17":0.5926718711853027,"18":0.04105755314230919,"19":-0.37272384762763977,"20":0.10143794119358063,"21":0.07046402990818024,"22":-0.013835366815328598,"23":-0.22266769409179688,"24":0.7813428044319153,"25":-0.11788231134414673,"26":-0.12056156247854233,"27":0.9960733652114868,"28":-0.2672003209590912,"29":-0.20018444955348969,"30":-0.2508063316345215,"31":-0.4798194468021393,"32":-0.1288323849439621,"33":0.2597597539424896,"34":0.15901999175548553,"35":-0.38146376609802246,"36":0.6514133810997009,"37":-0.6148585677146912,"38":0.25008848309516907,"39":-0.908369779586792,"40":-0.531992495059967,"41":-0.7621761560440063,"42":0.7588618397712708,"43":0.053276605904102325,"44":-1.0363951921463013,"45":-0.41838642954826355,"46":-1.0501364469528198,"47":-0.24732515215873718,"48":0.6087993383407593,"49":0.11164120584726334,"50":0.6435500979423523,"51":-0.5521727204322815,"52":0.41584810614585876,"53":-0.02192402258515358,"54":-0.35302016139030457,"55":-0.41085368394851685,"56":-0.17384666204452515,"57":0.04539325833320618,"58":-0.377310186624527,"59":0.0039090681821107864,"60":-0.6593311429023743,"61":0.38072019815444946,"62":0.8833845853805542,"63":-0.39815160632133484,"64":0.023075060918927193,"65":-0.41417378187179565,"66":0.030619703233242035,"67":-0.6603491306304932,"68":-0.20312359929084778,"69":0.78547203540802,"70":-0.2700544595718384,"71":-0.9449392557144165,"72":-0.3479522168636322,"73":0.3490264415740967,"74":0.7822402119636536,"75":-0.6732185482978821,"76":0.5809776782989502,"77":-0.46749016642570496,"78":-0.24400094151496887,"79":0.059499893337488174,"80":-0.3235992193222046,"81":-0.4213738441467285,"82":-0.5119580030441284,"83":0.13613760471343994,"84":-0.21626749634742737,"85":0.5923694372177124,"86":0.03778887167572975,"87":0.08255941420793533,"88":-0.20095641911029816,"89":0.388761430978775,"90":0.8343757390975952,"91":-0.37011629343032837,"92":0.31687918305397034,"93":0.1827951967716217,"94":-0.357241153717041,"95":0.09784987568855286,"96":-0.004467202816158533,"97":-0.4478316605091095,"98":0.6560776233673096,"99":-0.4316082298755646}},"25":{"bias":0.25876832008361816,"weights":{"0":-2.758305788040161,"1":2.697805404663086,"2":-0.8497818112373352,"3":0.1987343579530716,"4":-1.1998729705810547,"5":1.1685395240783691,"6":0.4776051938533783,"7":-1.1510599851608276,"8":-0.07309528440237045,"9":2.384045124053955,"10":-0.862312376499176,"11":-4.048038482666016,"12":-2.531564712524414,"13":-2.511446475982666,"14":3.091191053390503,"15":-1.8830193281173706,"16":1.0856337547302246,"17":1.1860246658325195,"18":-0.9412571787834167,"19":-0.6697126626968384,"20":-0.7879700064659119,"21":-0.30140814185142517,"22":-0.32674285769462585,"23":-4.537698745727539,"24":-0.564019501209259,"25":-1.9397618770599365,"26":1.950062870979309,"27":-2.973215103149414,"28":1.9348406791687012,"29":-0.5269091725349426,"30":1.6821744441986084,"31":-1.144403338432312,"32":-0.4026049077510834,"33":0.15513993799686432,"34":-0.6849421262741089,"35":-3.3275535106658936,"36":-0.7517912983894348,"37":0.6643161177635193,"38":-1.2413464784622192,"39":-3.191432237625122,"40":-1.3583903312683105,"41":2.0885400772094727,"42":-0.8314810395240784,"43":-2.5770795345306396,"44":1.6686211824417114,"45":-0.06300059705972672,"46":2.9025003910064697,"47":-1.2291486263275146,"48":0.17879681289196014,"49":-0.7151848077774048,"50":-1.180163025856018,"51":-1.479630470275879,"52":-0.6754798293113708,"53":4.053359031677246,"54":0.6101303696632385,"55":-0.7303197979927063,"56":1.3931618928909302,"57":-1.2825064659118652,"58":0.8314271569252014,"59":-3.057389736175537,"60":-3.265035390853882,"61":-1.2217490673065186,"62":-2.0917348861694336,"63":1.0631047487258911,"64":1.8198113441467285,"65":0.11959563195705414,"66":1.2628809213638306,"67":-1.6824036836624146,"68":1.7556781768798828,"69":-0.0017435922054573894,"70":-0.6119205951690674,"71":-0.6034190058708191,"72":1.079854130744934,"73":-1.7498314380645752,"74":-0.802323579788208,"75":-0.5776000022888184,"76":-1.8378307819366455,"77":1.6129374504089355,"78":0.7991211414337158,"79":-1.9453625679016113,"80":0.5681443810462952,"81":0.27793681621551514,"82":0.9429162740707397,"83":-2.146878719329834,"84":0.9107611179351807,"85":0.8023632764816284,"86":1.8272157907485962,"87":-2.0978951454162598,"88":-2.6787471771240234,"89":-0.9037704467773438,"90":-2.066615581512451,"91":-0.5500712394714355,"92":4.210665702819824,"93":1.5935088396072388,"94":-1.3125386238098145,"95":-2.261085271835327,"96":-1.0930492877960205,"97":-0.9232360124588013,"98":0.0799756720662117,"99":-2.969424247741699}},"26":{"bias":0.053582921624183655,"weights":{"0":0.3327285051345825,"1":-0.30272141098976135,"2":0.12075445801019669,"3":0.09053477644920349,"4":0.37491533160209656,"5":-0.15308913588523865,"6":0.08902309089899063,"7":0.24932429194450378,"8":-0.18653832376003265,"9":0.2711602449417114,"10":0.009939858689904213,"11":0.3356209993362427,"12":0.04529331997036934,"13":0.04255763068795204,"14":-0.2730625867843628,"15":0.19227921962738037,"16":-0.18120557069778442,"17":-0.14631810784339905,"18":0.18912731111049652,"19":0.055050283670425415,"20":-0.12643963098526,"21":0.09627754241228104,"22":0.0828370600938797,"23":0.21023079752922058,"24":0.35538116097450256,"25":0.18485693633556366,"26":-0.38107848167419434,"27":0.48171716928482056,"28":-0.4190402626991272,"29":-0.057878438383340836,"30":0.02073158510029316,"31":-0.09315448999404907,"32":-0.06969701498746872,"33":0.15698112547397614,"34":-0.2327989786863327,"35":0.09974328428506851,"36":-0.13969402015209198,"37":-0.24988190829753876,"38":0.35963767766952515,"39":0.2653670012950897,"40":-0.17766880989074707,"41":-0.1033705398440361,"42":-0.019849415868520737,"43":0.3185833692550659,"44":0.14576779305934906,"45":-0.06731972843408585,"46":-0.34761226177215576,"47":0.17550227046012878,"48":-0.07298856973648071,"49":-0.15644465386867523,"50":-0.12967653572559357,"51":0.0759609043598175,"52":0.30421507358551025,"53":-0.12371756881475449,"54":-0.2913656234741211,"55":-0.2839680314064026,"56":-0.2679799199104309,"57":0.15623468160629272,"58":-0.16250351071357727,"59":0.42133134603500366,"60":0.39551499485969543,"61":-0.13375060260295868,"62":0.29939907789230347,"63":0.04754969850182533,"64":-0.26543867588043213,"65":-0.20343033969402313,"66":-0.17483392357826233,"67":0.28917303681373596,"68":-0.080812968313694,"69":0.18034879863262177,"70":-0.3133953809738159,"71":0.21928837895393372,"72":-0.17420819401741028,"73":-0.22598545253276825,"74":0.030174458399415016,"75":0.34194415807724,"76":0.26689404249191284,"77":-0.32925349473953247,"78":-0.06597401946783066,"79":0.2534560263156891,"80":-0.14251473546028137,"81":0.060092903673648834,"82":-0.14542703330516815,"83":0.3628222942352295,"84":-0.0036408710293471813,"85":0.1062980443239212,"86":0.03812685236334801,"87":0.28336599469184875,"88":0.018272653222084045,"89":0.2811030149459839,"90":0.1162700355052948,"91":0.20563200116157532,"92":-0.16532285511493683,"93":0.025268252938985825,"94":-0.12100125104188919,"95":0.16211548447608948,"96":-0.15394453704357147,"97":0.22969494760036469,"98":0.025181520730257034,"99":0.40923941135406494}},"27":{"bias":-0.14726483821868896,"weights":{"0":0.12796489894390106,"1":0.13534915447235107,"2":-0.15951117873191833,"3":0.16178281605243683,"4":-0.09637760370969772,"5":0.3068656325340271,"6":-0.035878174006938934,"7":0.0939621552824974,"8":0.41488343477249146,"9":0.6336434483528137,"10":-0.46777644753456116,"11":-0.17008936405181885,"12":-0.555137574672699,"13":-0.3465479612350464,"14":0.37304162979125977,"15":-0.14356321096420288,"16":-0.3654041886329651,"17":-0.04061749950051308,"18":0.001119691994972527,"19":0.23380054533481598,"20":-0.16729658842086792,"21":0.05611565336585045,"22":-0.18789759278297424,"23":-0.5085073709487915,"24":-0.056720539927482605,"25":-0.597707211971283,"26":0.5576668381690979,"27":-0.07296479493379593,"28":0.4633762836456299,"29":0.03888707235455513,"30":0.37030029296875,"31":0.03414135053753853,"32":-0.31027835607528687,"33":0.05792151391506195,"34":-0.19502323865890503,"35":-0.4309317171573639,"36":-0.1625729352235794,"37":0.005523080937564373,"38":0.18291789293289185,"39":-0.33277225494384766,"40":-0.22564858198165894,"41":-0.24068261682987213,"42":-0.25018176436424255,"43":-0.21628126502037048,"44":-0.008912688121199608,"45":0.13060489296913147,"46":0.549638569355011,"47":-0.07908915728330612,"48":0.0995975136756897,"49":-0.18570902943611145,"50":-0.540783166885376,"51":-0.4162438213825226,"52":-0.026458699256181717,"53":0.46072128415107727,"54":0.2377246618270874,"55":-0.08767761290073395,"56":0.23468521237373352,"57":-0.5358596444129944,"58":0.09781692177057266,"59":-0.42533478140830994,"60":-1.0965008735656738,"61":-0.44665423035621643,"62":-0.5115170478820801,"63":-0.2294658124446869,"64":0.5305352807044983,"65":-0.012797587551176548,"66":-0.04027347266674042,"67":-0.4793086647987366,"68":0.6493360996246338,"69":-0.03507442772388458,"70":0.22220945358276367,"71":-0.2541584372520447,"72":-0.15561889111995697,"73":-0.13091576099395752,"74":0.009700718335807323,"75":-0.7351805567741394,"76":-0.05734561011195183,"77":0.2585294246673584,"78":0.40020501613616943,"79":-0.7374719381332397,"80":0.06268372386693954,"81":0.16112641990184784,"82":-0.31604909896850586,"83":-0.7613117694854736,"84":0.0717134177684784,"85":0.42932993173599243,"86":0.15077689290046692,"87":-0.026949817314743996,"88":-0.6384626626968384,"89":0.10131485760211945,"90":-0.6443512439727783,"91":-0.14086297154426575,"92":0.22112834453582764,"93":-0.1160982996225357,"94":0.5671221017837524,"95":-0.5916489958763123,"96":0.18195243179798126,"97":-0.22543567419052124,"98":0.17937366664409637,"99":-0.6280366778373718}},"28":{"bias":-0.43432098627090454,"weights":{"0":-2.11143159866333,"1":-0.5141683220863342,"2":3.057380437850952,"3":1.5395547151565552,"4":0.022836755961179733,"5":-1.8509305715560913,"6":0.11243154108524323,"7":-0.7789029479026794,"8":-1.2175860404968262,"9":-1.0085853338241577,"10":1.2920327186584473,"11":-0.07492595911026001,"12":0.32784178853034973,"13":3.0429422855377197,"14":-1.089408278465271,"15":1.3677160739898682,"16":0.9612962603569031,"17":-1.7758506536483765,"18":-0.7896166443824768,"19":3.446439027786255,"20":-2.8687148094177246,"21":-0.1543179154396057,"22":-1.0693997144699097,"23":0.6712716221809387,"24":0.004577625542879105,"25":-0.11458662152290344,"26":0.06952343881130219,"27":-1.0003669261932373,"28":1.2836353778839111,"29":0.8494887351989746,"30":0.438052773475647,"31":1.0136383771896362,"32":-1.3901917934417725,"33":-2.0191071033477783,"34":0.595991849899292,"35":-0.021775048226118088,"36":-0.9953401684761047,"37":1.0990899801254272,"38":0.2946648597717285,"39":0.046233776956796646,"40":1.6224620342254639,"41":2.905176877975464,"42":-1.8229166269302368,"43":-1.0806269645690918,"44":1.0000940561294556,"45":-1.5782933235168457,"46":0.6095502972602844,"47":1.913460373878479,"48":-0.26408374309539795,"49":0.016342421993613243,"50":-0.4169788360595703,"51":0.5059362053871155,"52":-2.9692928791046143,"53":3.395983934402466,"54":-0.11240776628255844,"55":3.0471723079681396,"56":1.0276867151260376,"57":-0.29840147495269775,"58":-0.0554632805287838,"59":1.964760661125183,"60":-0.6420966386795044,"61":-2.163574695587158,"62":-1.7261403799057007,"63":1.8150811195373535,"64":-1.4699193239212036,"65":0.2582354247570038,"66":0.6610237956047058,"67":1.2447081804275513,"68":1.3882814645767212,"69":1.1464377641677856,"70":-1.3151410818099976,"71":2.702336549758911,"72":2.4288880825042725,"73":-3.3885438442230225,"74":0.27221032977104187,"75":1.648117184638977,"76":-1.5806047916412354,"77":-0.28942763805389404,"78":1.823723554611206,"79":0.045948147773742676,"80":-2.1845338344573975,"81":0.7899460792541504,"82":0.4043603539466858,"83":0.10516998916864395,"84":-0.009334204718470573,"85":-1.674979329109192,"86":-1.0872622728347778,"87":2.118171215057373,"88":1.6673004627227783,"89":0.9047387838363647,"90":-0.4255458414554596,"91":-0.7205194234848022,"92":-1.3749663829803467,"93":-0.32554247975349426,"94":-0.015712419524788857,"95":-1.952300786972046,"96":1.434993863105774,"97":-0.11934498697519302,"98":-0.001804362633265555,"99":1.3146355152130127}},"29":{"bias":-0.04810873419046402,"weights":{"0":-0.439233660697937,"1":-0.24474917352199554,"2":0.5748459696769714,"3":0.01770056039094925,"4":0.03151613473892212,"5":-0.08031076937913895,"6":0.43201515078544617,"7":-0.17608003318309784,"8":0.08295244723558426,"9":-0.19802993535995483,"10":-0.005881448742002249,"11":0.2121630162000656,"12":-0.24061353504657745,"13":0.06066310033202171,"14":0.23301026225090027,"15":0.4394915997982025,"16":0.19984842836856842,"17":0.17483161389827728,"18":0.08595258742570877,"19":0.1698988676071167,"20":-0.48410215973854065,"21":-0.02568245865404606,"22":-0.18364563584327698,"23":-0.17823423445224762,"24":-0.06326338648796082,"25":-0.1154642403125763,"26":-0.08600996434688568,"27":-0.496074914932251,"28":0.011543487198650837,"29":-0.2674441933631897,"30":-0.17698299884796143,"31":0.041017938405275345,"32":-0.18444892764091492,"33":0.5074174404144287,"34":0.04273097217082977,"35":0.13596396148204803,"36":-0.024247992783784866,"37":-0.023010380566120148,"38":-0.09608893096446991,"39":0.08135067671537399,"40":0.10724419355392456,"41":0.21589738130569458,"42":0.2574923634529114,"43":-0.4218696355819702,"44":0.26167142391204834,"45":-0.30697527527809143,"46":-0.22788302600383759,"47":-0.146614208817482,"48":-0.2665635645389557,"49":0.40075305104255676,"50":-0.2554216980934143,"51":-0.09574628621339798,"52":-0.06045692786574364,"53":-0.020379822701215744,"54":-0.22209350764751434,"55":0.23263728618621826,"56":-0.004278977867215872,"57":-0.10163363814353943,"58":0.07813116908073425,"59":-0.19556568562984467,"60":-0.07866444438695908,"61":-0.3413981795310974,"62":0.04682735353708267,"63":0.03322296589612961,"64":-0.01566517911851406,"65":-0.3588782548904419,"66":0.14636605978012085,"67":-0.032257676124572754,"68":-0.03238115832209587,"69":0.016299786046147346,"70":-0.36477130651474,"71":0.3504253923892975,"72":0.15426816046237946,"73":0.163763165473938,"74":0.08646627515554428,"75":0.5058755278587341,"76":0.06330569088459015,"77":-0.15462587773799896,"78":0.0318230502307415,"79":0.29122424125671387,"80":0.02822619117796421,"81":-0.6642688512802124,"82":-0.19313427805900574,"83":0.016648167744278908,"84":0.063595250248909,"85":-0.03584545850753784,"86":0.3241296410560608,"87":-0.058908186852931976,"88":-0.25637733936309814,"89":-0.1987617462873459,"90":-0.3973250687122345,"91":0.3363431990146637,"92":-0.054321855306625366,"93":0.4781809449195862,"94":-0.042896371334791183,"95":-0.46975231170654297,"96":0.011898051016032696,"97":-0.1746184229850769,"98":-0.17344388365745544,"99":0.21844160556793213}},"30":{"bias":-0.09616560488939285,"weights":{"0":-0.47815844416618347,"1":0.46636906266212463,"2":-0.11602973937988281,"3":0.30421581864356995,"4":-0.28685954213142395,"5":0.3615180552005768,"6":-0.4435660243034363,"7":-0.4420897662639618,"8":0.3996821343898773,"9":-0.03682645782828331,"10":0.02505417913198471,"11":-0.35864901542663574,"12":-1.024461269378662,"13":-0.06741345673799515,"14":-0.05036933720111847,"15":0.19814439117908478,"16":0.2365054190158844,"17":0.4253462851047516,"18":0.40404820442199707,"19":1.4595050811767578,"20":-1.3523468971252441,"21":-0.403954416513443,"22":-0.27494150400161743,"23":-0.01307477056980133,"24":0.38948115706443787,"25":-0.5928462147712708,"26":-0.08081687986850739,"27":-0.39016300439834595,"28":0.13323792815208435,"29":0.2944815456867218,"30":0.17006082832813263,"31":-0.3996949791908264,"32":-0.5455524325370789,"33":-0.17325147986412048,"34":-0.06439809501171112,"35":-0.5104380249977112,"36":0.13536600768566132,"37":0.7488975524902344,"38":-0.7142757773399353,"39":0.3695622980594635,"40":0.19849926233291626,"41":0.2835063934326172,"42":-0.35787245631217957,"43":0.7165101766586304,"44":-0.25704365968704224,"45":-0.04863238334655762,"46":0.7422212958335876,"47":0.31035861372947693,"48":-0.4300535023212433,"49":0.16659027338027954,"50":0.1668206751346588,"51":0.8785163164138794,"52":-0.2258063554763794,"53":0.3967418372631073,"54":-0.2246738076210022,"55":1.2450178861618042,"56":-0.21028290688991547,"57":-1.3767715692520142,"58":0.20179186761379242,"59":0.24517464637756348,"60":0.1753978133201599,"61":-0.36453473567962646,"62":-0.5263713002204895,"63":2.0169122219085693,"64":0.09141094982624054,"65":-0.31533926725387573,"66":-0.22817561030387878,"67":0.9723857641220093,"68":0.311311274766922,"69":0.7720450758934021,"70":0.17295755445957184,"71":1.0958318710327148,"72":0.8885849714279175,"73":-1.0589581727981567,"74":-0.47282809019088745,"75":0.896119236946106,"76":-0.7919409871101379,"77":0.8602897524833679,"78":0.5021587610244751,"79":0.3717254102230072,"80":0.24645483493804932,"81":-0.8508721590042114,"82":0.1450684368610382,"83":0.006040505133569241,"84":-0.6807041764259338,"85":0.298379123210907,"86":0.3119441270828247,"87":0.9886977076530457,"88":0.36294806003570557,"89":-0.058594558387994766,"90":-0.8354119062423706,"91":0.8261549472808838,"92":0.08675771206617355,"93":-0.12769454717636108,"94":-0.3662034869194031,"95":0.09957079589366913,"96":-0.6602180004119873,"97":-0.000025012339392560534,"98":0.1017785519361496,"99":0.9003447890281677}},"31":{"bias":-0.12039104104042053,"weights":{"0":0.2536850571632385,"1":-0.01843586377799511,"2":-0.2615801990032196,"3":0.012814352288842201,"4":0.11239465326070786,"5":0.09295704215765,"6":-0.4362845718860626,"7":0.24873849749565125,"8":-0.18693678081035614,"9":-0.06001842021942139,"10":-0.06018708273768425,"11":0.22920863330364227,"12":0.19442953169345856,"13":-0.24724960327148438,"14":-0.22756505012512207,"15":-0.07246214151382446,"16":-0.194630965590477,"17":-0.060759685933589935,"18":-0.06831525266170502,"19":0.05575050786137581,"20":-0.26749277114868164,"21":-0.03423291817307472,"22":0.217314213514328,"23":-0.04565014690160751,"24":0.3177998960018158,"25":-0.2113424837589264,"26":0.03367215767502785,"27":0.3021548092365265,"28":-0.13661040365695953,"29":-0.14087209105491638,"30":-0.42754143476486206,"31":0.12959112226963043,"32":-0.14674022793769836,"33":-0.18866999447345734,"34":-0.0005642999312840402,"35":0.06136670336127281,"36":0.08871140331029892,"37":-0.6877211332321167,"38":0.04620334506034851,"39":0.33103862404823303,"40":-0.09168069064617157,"41":0.3402462601661682,"42":-0.06708573549985886,"43":0.04839342460036278,"44":-0.11887053400278091,"45":0.18651457130908966,"46":-0.3897261917591095,"47":0.1328379511833191,"48":-0.023539094254374504,"49":-0.6503694653511047,"50":0.2435409128665924,"51":-0.0789235532283783,"52":-0.22386710345745087,"53":-0.10893018543720245,"54":-0.11078040301799774,"55":-0.059760063886642456,"56":-0.2793569564819336,"57":0.37053292989730835,"58":-0.10570091754198074,"59":0.630547285079956,"60":0.18601395189762115,"61":-0.1067170575261116,"62":0.22101536393165588,"63":-0.08230508118867874,"64":-0.4902806580066681,"65":-0.1771014779806137,"66":-0.09491444379091263,"67":-0.008862229995429516,"68":0.26239046454429626,"69":0.3769603967666626,"70":-0.12512652575969696,"71":0.0789300799369812,"72":0.2206355482339859,"73":-0.10861474275588989,"74":-0.12905602157115936,"75":0.08076716214418411,"76":0.02539735846221447,"77":-0.07307074218988419,"78":-0.19649897515773773,"79":0.19092796742916107,"80":-0.3101746141910553,"81":-0.003863403107970953,"82":-0.144538015127182,"83":0.06713954359292984,"84":-0.29719528555870056,"85":0.317909836769104,"86":0.06941711157560349,"87":0.27942416071891785,"88":0.49616366624832153,"89":-0.02071211114525795,"90":0.05015964061021805,"91":0.12951824069023132,"92":-0.3034811317920685,"93":-0.08430981636047363,"94":0.044588953256607056,"95":0.27106061577796936,"96":0.21222829818725586,"97":-0.2404405027627945,"98":-0.3059980571269989,"99":-0.0779723972082138}},"32":{"bias":-0.09455695748329163,"weights":{"0":0.29399165511131287,"1":-0.1141766756772995,"2":-0.24077360332012177,"3":0.20642009377479553,"4":0.03749081864953041,"5":0.22973281145095825,"6":-0.027465341612696648,"7":0.19260665774345398,"8":-0.08854234218597412,"9":0.20671367645263672,"10":-0.06972811371088028,"11":0.2950439453125,"12":0.48738136887550354,"13":-0.18131715059280396,"14":-0.1901932805776596,"15":-0.29721012711524963,"16":-0.27803221344947815,"17":-0.16955004632472992,"18":-0.20576968789100647,"19":-0.019338322803378105,"20":0.013396418653428555,"21":0.3803849220275879,"22":0.14289602637290955,"23":-0.1299266219139099,"24":0.5220125913619995,"25":-0.14280389249324799,"26":-0.5266167521476746,"27":0.34283125400543213,"28":-0.317600280046463,"29":-0.03866245970129967,"30":-0.24446310102939606,"31":-0.19020864367485046,"32":-0.43712151050567627,"33":0.42477038502693176,"34":-0.15568679571151733,"35":0.04464370757341385,"36":0.0633108913898468,"37":-0.5991033911705017,"38":0.16874553263187408,"39":0.30620571970939636,"40":-0.1304064840078354,"41":-0.45136547088623047,"42":0.17576521635055542,"43":0.33529117703437805,"44":-0.3571622967720032,"45":0.33496978878974915,"46":-0.42244571447372437,"47":0.11093156784772873,"48":0.04180406406521797,"49":0.23706282675266266,"50":0.01454540342092514,"51":-0.15293358266353607,"52":0.059153612703084946,"53":-0.9026857018470764,"54":0.10247765481472015,"55":-0.273650586605072,"56":-0.540284276008606,"57":-0.07087252289056778,"58":-0.27817702293395996,"59":0.18918368220329285,"60":0.5823248028755188,"61":0.6935004591941833,"62":0.1944257766008377,"63":0.15225102007389069,"64":-0.2332952618598938,"65":-0.5014893412590027,"66":-0.19685979187488556,"67":0.1878730058670044,"68":-0.15151719748973846,"69":-0.26823538541793823,"70":0.01738927699625492,"71":0.06983698159456253,"72":-0.2294807732105255,"73":0.039251405745744705,"74":-0.06564018875360489,"75":-0.16087107360363007,"76":0.046371590346097946,"77":0.03075469844043255,"78":-0.35996878147125244,"79":0.009952749125659466,"80":0.03201507404446602,"81":-0.6002885699272156,"82":0.24413476884365082,"83":0.21464866399765015,"84":-0.4476986527442932,"85":0.37960511445999146,"86":-0.3848567306995392,"87":0.21433982253074646,"88":0.056136354804039,"89":0.23186546564102173,"90":0.11363520473241806,"91":0.03834306076169014,"92":0.14556339383125305,"93":-0.4079277515411377,"94":0.16397422552108765,"95":0.26517757773399353,"96":-0.16602207720279694,"97":-0.3412482738494873,"98":-0.016528859734535217,"99":0.03541874885559082}},"33":{"bias":-0.9816246628761292,"weights":{"0":-2.3272595405578613,"1":-0.18396873772144318,"2":0.8013230562210083,"3":-1.8462389707565308,"4":-0.5506071448326111,"5":1.0752031803131104,"6":-2.1230034828186035,"7":-1.5169962644577026,"8":0.06773555278778076,"9":-1.6584311723709106,"10":-0.02556023746728897,"11":1.0043060779571533,"12":-4.944385528564453,"13":0.31336846947669983,"14":0.7295240163803101,"15":2.9495346546173096,"16":-1.0261555910110474,"17":-0.8658055067062378,"18":0.2624535858631134,"19":0.6478378176689148,"20":0.08824144303798676,"21":-0.04345345124602318,"22":0.4234137237071991,"23":0.8810424208641052,"24":-1.7657935619354248,"25":0.36140355467796326,"26":-1.9047588109970093,"27":-0.6624448895454407,"28":0.2098378837108612,"29":-1.9827029705047607,"30":-0.08257922530174255,"31":2.254364490509033,"32":0.9502553343772888,"33":-1.5744082927703857,"34":-2.2224507331848145,"35":2.0846238136291504,"36":0.22084765136241913,"37":2.147951126098633,"38":-3.6623237133026123,"39":2.2136638164520264,"40":-1.1511807441711426,"41":1.8746578693389893,"42":-1.3321210145950317,"43":6.209526062011719,"44":-2.977158784866333,"45":-1.33663010597229,"46":1.3951464891433716,"47":1.9672226905822754,"48":-0.9954383969306946,"49":-0.8804109692573547,"50":-2.101318120956421,"51":1.55972421169281,"52":1.6329584121704102,"53":0.553202211856842,"54":-0.2480716109275818,"55":2.4265313148498535,"56":-0.6943455934524536,"57":-2.4811010360717773,"58":1.3463490009307861,"59":-0.33500218391418457,"60":1.2073032855987549,"61":-3.285064220428467,"62":0.30298733711242676,"63":3.4793202877044678,"64":-1.7437779903411865,"65":0.6406153440475464,"66":-1.3596943616867065,"67":1.3331464529037476,"68":0.3164233863353729,"69":0.11471672356128693,"70":-1.8780866861343384,"71":3.2714247703552246,"72":1.3521732091903687,"73":-1.1736316680908203,"74":0.1873609870672226,"75":4.803127288818359,"76":0.4844754636287689,"77":-0.14553429186344147,"78":-0.6490697860717773,"79":0.4632661044597626,"80":2.2558982372283936,"81":0.5675944089889526,"82":-1.1144784688949585,"83":1.5149232149124146,"84":-1.9679023027420044,"85":-0.6163800954818726,"86":0.1372574418783188,"87":0.553276538848877,"88":-0.39542174339294434,"89":-1.8398659229278564,"90":0.5507134199142456,"91":2.5399458408355713,"92":0.2229071408510208,"93":-0.7267704606056213,"94":-0.7476208209991455,"95":4.488548278808594,"96":-1.645062804222107,"97":-0.0025026835501194,"98":-0.2059129923582077,"99":5.0943498611450195}},"34":{"bias":-0.14239926636219025,"weights":{"0":-0.5230846405029297,"1":-0.2544665038585663,"2":1.2819758653640747,"3":0.45294734835624695,"4":-0.1264779418706894,"5":-0.31803563237190247,"6":-0.1572870910167694,"7":0.10511182993650436,"8":-0.09877198934555054,"9":-0.48380225896835327,"10":-0.28457555174827576,"11":0.10339590907096863,"12":-0.06090300530195236,"13":0.2606815993785858,"14":0.4123358726501465,"15":0.22791926562786102,"16":-0.09014281630516052,"17":-0.2183127999305725,"18":-0.24587635695934296,"19":0.009382076561450958,"20":-0.14837513864040375,"21":0.5289736390113831,"22":-0.7524839639663696,"23":0.3144000172615051,"24":-0.022047296166419983,"25":-0.45701757073402405,"26":0.4577453136444092,"27":-0.33922481536865234,"28":-0.2703164517879486,"29":0.12189295142889023,"30":0.06148376315832138,"31":0.07874206453561783,"32":-0.18846885859966278,"33":-0.2027091532945633,"34":0.1264532506465912,"35":0.5703552961349487,"36":-0.08788781613111496,"37":-0.00488953897729516,"38":0.27169540524482727,"39":0.4450686573982239,"40":-0.3408152163028717,"41":0.026043547317385674,"42":-0.23332057893276215,"43":-0.3202311098575592,"44":0.15775667130947113,"45":0.17610616981983185,"46":0.33707576990127563,"47":0.049869220703840256,"48":0.3347301483154297,"49":-0.5630650520324707,"50":-0.5522993803024292,"51":-0.11100281774997711,"52":0.07288951426744461,"53":0.44567298889160156,"54":-0.13187986612319946,"55":-0.15017689764499664,"56":-0.18177847564220428,"57":-0.1742292195558548,"58":-0.11888402700424194,"59":-0.18570026755332947,"60":-0.31916818022727966,"61":-0.03731941059231758,"62":-0.22562427818775177,"63":-0.2111550122499466,"64":0.049128226935863495,"65":0.22038370370864868,"66":0.1468643993139267,"67":-0.2675703465938568,"68":-0.48708677291870117,"69":-0.23378051817417145,"70":-0.34279105067253113,"71":0.24687975645065308,"72":-0.08055461198091507,"73":0.0009538901504129171,"74":-0.3130466043949127,"75":-0.24764735996723175,"76":-0.13125208020210266,"77":0.01776621676981449,"78":0.38208916783332825,"79":0.6498380303382874,"80":-0.426058292388916,"81":0.04390321299433708,"82":0.2677570581436157,"83":0.4177998900413513,"84":0.325958251953125,"85":-0.6995925903320312,"86":-0.7244988083839417,"87":0.08936385065317154,"88":-0.16693967580795288,"89":0.041806407272815704,"90":-0.06573037058115005,"91":0.19047483801841736,"92":0.2695865333080292,"93":-0.12295036762952805,"94":0.22711840271949768,"95":-0.37973177433013916,"96":-0.3626432716846466,"97":0.3127739727497101,"98":-0.06862611323595047,"99":0.27387192845344543}},"35":{"bias":-0.13311639428138733,"weights":{"0":0.4220217168331146,"1":0.3990885615348816,"2":-0.6203088760375977,"3":-0.06524532288312912,"4":0.24034912884235382,"5":-0.6149938106536865,"6":-0.3484307825565338,"7":0.7250887751579285,"8":-0.47806596755981445,"9":0.6554260849952698,"10":0.06730252504348755,"11":0.3844079375267029,"12":0.4299984574317932,"13":0.2062816470861435,"14":-0.4834941625595093,"15":-0.24936354160308838,"16":-0.0010201908880844712,"17":-0.7303897142410278,"18":0.4222303032875061,"19":0.037909116595983505,"20":0.1954810470342636,"21":-0.019248804077506065,"22":0.11802658438682556,"23":-0.053875457495450974,"24":-0.03818901255726814,"25":0.4068465232849121,"26":-0.14053750038146973,"27":0.2419423609972,"28":-0.40002885460853577,"29":-0.5253482460975647,"30":-0.17325280606746674,"31":-0.0015226509422063828,"32":0.46667513251304626,"33":-0.22540795803070068,"34":-0.022162484005093575,"35":0.18317817151546478,"36":-0.6246235966682434,"37":-0.2938593327999115,"38":0.027013765648007393,"39":-0.21966251730918884,"40":0.20826318860054016,"41":0.014429368078708649,"42":-0.04733870550990105,"43":0.14319127798080444,"44":-0.469474196434021,"45":-0.5965470671653748,"46":-0.4365077614784241,"47":-0.030048241838812828,"48":-0.02103443257510662,"49":0.45357099175453186,"50":0.17911821603775024,"51":0.10338978469371796,"52":0.12248025089502335,"53":-0.4466266930103302,"54":-0.09265084564685822,"55":0.08290593326091766,"56":-0.17356781661510468,"57":-0.015295787714421749,"58":-0.5401544570922852,"59":0.08135352283716202,"60":-0.2332715094089508,"61":0.3189253807067871,"62":0.6695820093154907,"63":0.09232702851295471,"64":-0.1792973428964615,"65":-0.019617289304733276,"66":-0.14870209991931915,"67":-0.028878862038254738,"68":-0.34341952204704285,"69":0.007686430122703314,"70":-0.4715057909488678,"71":-0.469617635011673,"72":0.32159265875816345,"73":-0.44724971055984497,"74":0.22169911861419678,"75":-0.037142690271139145,"76":-0.4280829429626465,"77":0.02027387171983719,"78":-0.3583390712738037,"79":-0.10630007833242416,"80":-0.24203042685985565,"81":0.15964823961257935,"82":-0.27749553322792053,"83":0.21196408569812775,"84":-0.1949501782655716,"85":-0.3682599365711212,"86":0.11882629245519638,"87":0.27039799094200134,"88":0.08194303512573242,"89":0.42209821939468384,"90":0.44068223237991333,"91":-0.21215064823627472,"92":-0.5682784914970398,"93":0.131810262799263,"94":0.46397534012794495,"95":0.5224483013153076,"96":-0.15727117657661438,"97":0.19380830228328705,"98":-0.2118867039680481,"99":-0.034018244594335556}},"36":{"bias":0.038986243307590485,"weights":{"0":-0.18490499258041382,"1":0.445492148399353,"2":0.007824290543794632,"3":0.5294564366340637,"4":-0.22210188210010529,"5":0.4269980788230896,"6":-0.06980530917644501,"7":0.04610415920615196,"8":0.2699357271194458,"9":0.35459834337234497,"10":-0.11284970492124557,"11":-0.49345827102661133,"12":-0.6239603161811829,"13":-0.47817736864089966,"14":0.4888118803501129,"15":0.00019878415332641453,"16":0.2896019518375397,"17":0.03317701071500778,"18":-0.3408999443054199,"19":0.4609435498714447,"20":-0.45875176787376404,"21":0.02030443586409092,"22":-0.20445378124713898,"23":-0.41890862584114075,"24":0.04731426015496254,"25":-0.4585757851600647,"26":0.083859384059906,"27":-0.4847259819507599,"28":0.350100576877594,"29":-0.2220233827829361,"30":0.35877329111099243,"31":-0.17177599668502808,"32":-0.05478278547525406,"33":-0.10436795651912689,"34":-0.15514898300170898,"35":-0.39128172397613525,"36":-0.4771978259086609,"37":0.28739961981773376,"38":-0.06514263153076172,"39":-0.5687920451164246,"40":-0.4031609892845154,"41":-0.06310670077800751,"42":-0.29574212431907654,"43":-0.011736306361854076,"44":0.03999529406428337,"45":0.250281423330307,"46":0.40976017713546753,"47":-0.009744178503751755,"48":0.24220888316631317,"49":-0.3319937288761139,"50":-0.37829405069351196,"51":-0.17750029265880585,"52":-0.098078154027462,"53":0.37037912011146545,"54":-0.004671446979045868,"55":-0.25663670897483826,"56":-0.08025553077459335,"57":-0.20199957489967346,"58":0.3958681523799896,"59":-0.5045819282531738,"60":-0.7268366813659668,"61":-0.3631046414375305,"62":-0.04009300097823143,"63":0.05154438689351082,"64":0.6220511198043823,"65":-0.10059747099876404,"66":0.2900193929672241,"67":-0.8582519888877869,"68":0.4796138107776642,"69":0.029636844992637634,"70":-0.056347835808992386,"71":-0.04607083275914192,"72":0.5207557678222656,"73":-0.2675077021121979,"74":-0.03886720538139343,"75":-0.5022852420806885,"76":-0.4326237440109253,"77":0.07706519961357117,"78":0.18757660686969757,"79":-0.7202010154724121,"80":0.03479022532701492,"81":0.03985153138637543,"82":0.12020552903413773,"83":-0.31937161087989807,"84":-0.33076173067092896,"85":0.2772485911846161,"86":0.21039901673793793,"87":-0.062097493559122086,"88":-0.2872638404369354,"89":0.12593169510364532,"90":-0.5505698919296265,"91":0.16776452958583832,"92":0.6570873260498047,"93":-0.025767134502530098,"94":0.10701509565114975,"95":-0.6206940412521362,"96":-0.27952396869659424,"97":-0.15789374709129333,"98":0.34795528650283813,"99":-0.5123717784881592}},"37":{"bias":0.05996399745345116,"weights":{"0":-2.3368988037109375,"1":-3.9005372524261475,"2":6.0026774406433105,"3":-2.214951753616333,"4":-2.522371768951416,"5":0.3334794342517853,"6":0.711125373840332,"7":-2.5918047428131104,"8":0.877169132232666,"9":-4.836033821105957,"10":0.5296939611434937,"11":-1.3595410585403442,"12":-3.055814027786255,"13":0.5394901633262634,"14":-0.24739457666873932,"15":-0.7622151970863342,"16":3.8017947673797607,"17":-1.3748518228530884,"18":0.7167226672172546,"19":-0.1184505820274353,"20":-2.748528480529785,"21":2.339799165725708,"22":-0.2844068706035614,"23":0.7427797317504883,"24":-0.3964548408985138,"25":-1.6713924407958984,"26":-0.2821027934551239,"27":-1.703284740447998,"28":-2.3946049213409424,"29":4.674005031585693,"30":0.02569955214858055,"31":3.7284903526306152,"32":1.353812336921692,"33":1.2460746765136719,"34":1.3970048427581787,"35":1.9220634698867798,"36":3.747006416320801,"37":2.691314220428467,"38":-0.8504953980445862,"39":-1.1081867218017578,"40":-0.4784637689590454,"41":0.2531422972679138,"42":0.5158697962760925,"43":-0.15455520153045654,"44":-1.1063697338104248,"45":-1.5054104328155518,"46":0.9135436415672302,"47":-1.4189996719360352,"48":2.7044641971588135,"49":1.4827930927276611,"50":-1.205399990081787,"51":-1.4403256177902222,"52":1.731451392173767,"53":3.071995735168457,"54":-2.8884201049804688,"55":0.947666347026825,"56":-2.211419105529785,"57":-1.7530666589736938,"58":0.2244873344898224,"59":0.35498398542404175,"60":-2.387464761734009,"61":0.5976886749267578,"62":-2.940566062927246,"63":-0.205656036734581,"64":1.4162771701812744,"65":1.07681405544281,"66":0.9816129803657532,"67":0.8438843488693237,"68":-2.492354154586792,"69":-0.09538087248802185,"70":1.8621137142181396,"71":1.8703089952468872,"72":2.6447505950927734,"73":-0.8851284384727478,"74":0.34286507964134216,"75":-0.26295772194862366,"76":1.381035327911377,"77":-0.5303478240966797,"78":0.8594887256622314,"79":0.8918319940567017,"80":-2.6780099868774414,"81":-3.948446035385132,"82":2.1023824214935303,"83":2.3481056690216064,"84":1.0465147495269775,"85":0.41857317090034485,"86":-3.6177449226379395,"87":-1.3142461776733398,"88":-0.839345395565033,"89":-1.2331944704055786,"90":-0.5143875479698181,"91":-0.45932459831237793,"92":0.9356305003166199,"93":-1.6764121055603027,"94":0.6999822854995728,"95":-0.6055178046226501,"96":-0.47929146885871887,"97":0.24505643546581268,"98":2.66487455368042,"99":4.723398208618164}},"38":{"bias":-0.09846676886081696,"weights":{"0":0.7893075346946716,"1":-0.5827732086181641,"2":0.12883321940898895,"3":0.10598821938037872,"4":0.4763876497745514,"5":-0.28545480966567993,"6":0.17663167417049408,"7":0.3371255397796631,"8":-0.4803520739078522,"9":0.19364582002162933,"10":0.07723572105169296,"11":0.24397477507591248,"12":0.6322885155677795,"13":-0.023291166871786118,"14":-0.39503562450408936,"15":0.07051734626293182,"16":0.08788742125034332,"17":0.2027023285627365,"18":-0.0026366072706878185,"19":0.09509937465190887,"20":-0.1070784479379654,"21":0.25097736716270447,"22":-0.251417875289917,"23":0.10220719873905182,"24":0.2829303443431854,"25":0.23563535511493683,"26":-0.16686499118804932,"27":0.577399730682373,"28":-0.39511367678642273,"29":-0.1443353146314621,"30":-0.24263863265514374,"31":0.09500676393508911,"32":0.06486440449953079,"33":0.07983208447694778,"34":-0.278904527425766,"35":0.2726380228996277,"36":-0.030649520456790924,"37":-0.4476451277732849,"38":0.7355917096138,"39":-0.0003752840857487172,"40":-0.197158083319664,"41":-0.27613264322280884,"42":0.2783581018447876,"43":0.12138829380273819,"44":-0.11393013596534729,"45":-0.1751808375120163,"46":-0.7246673703193665,"47":0.22466018795967102,"48":-0.03874044865369797,"49":-0.08299006521701813,"50":0.2078953981399536,"51":0.12099679559469223,"52":0.4194955825805664,"53":0.11704079061746597,"54":-0.25214889645576477,"55":-0.2732643187046051,"56":0.03324218466877937,"57":0.601827085018158,"58":-0.07581320405006409,"59":0.6769174337387085,"60":0.1910824477672577,"61":-0.10498367995023727,"62":0.2168000042438507,"63":-0.09714600443840027,"64":-0.3981931507587433,"65":-0.21925602853298187,"66":-0.09075983613729477,"67":0.07508564740419388,"68":-0.3193676173686981,"69":0.02069953642785549,"70":-0.09196069836616516,"71":0.22864873707294464,"72":0.10857754945755005,"73":0.17166775465011597,"74":0.21441678702831268,"75":0.23222336173057556,"76":-0.19615155458450317,"77":-0.32874050736427307,"78":-0.21652589738368988,"79":0.5106385350227356,"80":0.19488075375556946,"81":0.16478754580020905,"82":-0.296978622674942,"83":0.5389981865882874,"84":0.19194050133228302,"85":-0.2617684304714203,"86":0.009398035705089569,"87":0.4261254668235779,"88":-0.010330768302083015,"89":0.2215062379837036,"90":0.20367111265659332,"91":0.23271599411964417,"92":-0.3391108810901642,"93":-0.10398215055465698,"94":0.06933154910802841,"95":-0.039919912815093994,"96":-0.12269850820302963,"97":0.0540703721344471,"98":-0.06385181844234467,"99":0.27343177795410156}},"39":{"bias":-0.20376786589622498,"weights":{"0":0.6433877348899841,"1":-0.4879642128944397,"2":0.2931666970252991,"3":0.26555079221725464,"4":0.5401400327682495,"5":-0.22914175689220428,"6":0.12621590495109558,"7":0.18629178404808044,"8":-0.05728758126497269,"9":-0.08388550579547882,"10":0.16584183275699615,"11":0.3014702796936035,"12":0.9797338247299194,"13":-0.0321531668305397,"14":-0.5560464262962341,"15":-0.10930176079273224,"16":-0.34475648403167725,"17":-0.11110838502645493,